{"learner":{"attributes":{"scikit_learn":"{\"_estimator_type\": \"regressor\"}"},"feature_names":["Brand","Model","Year","Engine_Size","Fuel_Type","Transmission","Mileage","Doors","Owner_Count"],"feature_types":["int","int","int","float","int","int","int","int","int"],"gradient_booster":{"model":{"gbtree_model_param":{"num_parallel_tree":"1","num_trees":"100"},"iteration_indptr":[0,1,2,3,4,5,6,7,8,9,10,11,12,13,14,15,16,17,18,19,20,21,22,23,24,25,26,27,28,29,30,31,32,33,34,35,36,37,38,39,40,41,42,43,44,45,46,47,48,49,50,51,52,53,54,55,56,57,58,59,60,61,62,63,64,65,66,67,68,69,70,71,72,73,74,75,76,77,78,79,80,81,82,83,84,85,86,87,88,89,90,91,92,93,94,95,96,97,98,99,100],"tree_info":[0,0,0,0,0,0,0,0,0,0,0,0,0,0,0,0,0,0,0,0,0,0,0,0,0,0,0,0,0,0,0,0,0,0,0,0,0,0,0,0,0,0,0,0,0,0,0,0,0,0,0,0,0,0,0,0,0,0,0,0,0,0,0,0,0,0,0,0,0,0,0,0,0,0,0,0,0,0,0,0,0,0,0,0,0,0,0,0,0,0,0,0,0,0,0,0,0,0,0,0],"trees":[{"base_weights":[1.327959E-4,-1.7922235E3,1.7868566E3,-1.20923904E2,-3.2525942E3,2.9724211E3,1.8083189E1,-1.5476288E3,5.692571E2,-4.0489407E3,-2.0995027E3,1.919561E3,3.9210613E3,-9.3107684E2,1.1737848E3,-2.6893577E3,-6.926226E2,-3.9061548E2,1.4216223E3,-4.6918657E3,-3.106695E3,-2.909644E3,-1.00060333E3,6.988951E2,2.7917258E3,2.857017E3,4.6986987E3,-1.5738308E3,4.114247E2,2.5528448E2,2.086537E3,-1.6937246E3,-3.1549226E3,1.0465094E2,-1.4081378E3,4.595968E2,-9.7568884E2,2.0964468E3,6.809939E2,-3.8546182E3,-5.3380776E3,-2.3957993E3,-3.9471008E3,-2.0896084E3,-3.734461E3,-2.8705606E2,-1.7936045E3,1.4771486E3,-1.3992014E2,3.6539087E3,1.934078E3,3.6707283E3,1.7282228E3,5.524803E3,3.7881194E3,-5.78272E2,-1.9876699E3,1.4052626E3,-9.5453255E1,1.2834528E3,-2.5141829E2,3.139777E3,1.5359634E3,-1.16522964E2,-2.3167256E2,-2.2112341E2,-3.7147018E2,3.541766E1,-8.062522E1,-3.0763874E1,-1.8510295E2,1.3655565E2,-9.542231E0,-1.7562017E1,-1.3749727E2,1.4871414E2,2.8632925E2,1.6430792E2,9.258526E0,-2.774535E2,-4.399295E2,-4.3453842E2,-5.7359015E2,-3.0674625E2,-1.8055888E2,-4.606621E2,-3.135007E2,-1.1038857E2,-2.5282837E2,-2.621073E2,-4.1813718E2,6.2951893E1,-7.972117E1,-8.8199974E1,-2.2006812E2,2.2838953E2,1.1321792E2,9.686084E1,-6.2102E1,4.651837E2,3.119873E2,2.9419086E2,1.3504826E2,4.7378766E2,3.076719E2,2.6609415E2,1.2926378E2,6.3323236E2,5.0142538E2,4.7319382E2,3.2336215E2,-1.24104836E2,-3.1329353E0,-2.6293405E2,-1.3635333E2,1.7559274E2,4.310973E1,6.852256E1,-6.1733864E1,1.998639E2,6.8787796E1,1.8570778E1,-9.884073E1,3.8833328E2,2.3820166E2,2.1604874E2,8.212702E1],"categories":[],"categories_nodes":[],"categories_segments":[],"categories_sizes":[],"default_left":[0,0,0,0,0,0,0,0,0,0,0,0,0,0,0,0,0,0,0,0,0,0,0,0,0,0,0,0,0,0,0,0,0,0,0,0,0,0,0,0,0,0,0,0,0,0,0,0,0,0,0,0,0,0,0,0,0,0,0,0,0,0,0,0,0,0,0,0,0,0,0,0,0,0,0,0,0,0,0,0,0,0,0,0,0,0,0,0,0,0,0,0,0,0,0,0,0,0,0,0,0,0,0,0,0,0,0,0,0,0,0,0,0,0,0,0,0,0,0,0,0,0,0,0,0,0,0],"id":0,"left_children":[1,3,5,7,9,11,13,15,17,19,21,23,25,27,29,31,33,35,37,39,41,43,45,47,49,51,53,55,57,59,61,63,65,67,69,71,73,75,77,79,81,83,85,87,89,91,93,95,97,99,101,103,105,107,109,111,113,115,117,119,121,123,125,-1,-1,-1,-1,-1,-1,-1,-1,-1,-1,-1,-1,-1,-1,-1,-1,-1,-1,-1,-1,-1,-1,-1,-1,-1,-1,-1,-1,-1,-1,-1,-1,-1,-1,-1,-1,-1,-1,-1,-1,-1,-1,-1,-1,-1,-1,-1,-1,-1,-1,-1,-1,-1,-1,-1,-1,-1,-1,-1,-1,-1,-1,-1,-1],"loss_changes":[2.5625975E10,9.75027E9,8.402606E9,1.836333E9,1.9492311E9,2.38856E9,1.7660786E9,5.9165786E8,1.02898496E9,7.487222E8,7.7428915E8,1.2106532E9,1.0299781E9,7.6344966E8,6.081193E8,1.1517466E8,1.992384E8,2.9493088E8,3.3143526E8,3.8358016E8,2.9762816E8,3.3173914E8,2.09979E8,3.1094464E8,4.8392704E8,4.850601E8,5.2594483E8,2.4522714E8,1.4471168E8,1.8943686E8,2.0625587E8,2.5286976E7,8.475917E7,3.801631E7,8.911251E7,1.2181392E8,1.1188707E8,1.5834253E8,1.8043355E8,1.8134323E8,1.4054605E8,1.0585613E8,1.1088691E8,1.0704179E8,1.1293875E8,9.261826E7,6.337139E7,6.615507E7,1.23263496E8,1.6135373E8,1.930624E8,1.8193075E8,8.837926E7,1.2450099E8,1.6734618E8,6.412374E7,1.6542157E8,3.2378752E7,7.824117E7,4.9738816E7,7.878989E7,6.0615936E7,1.057943E8,0E0,0E0,0E0,0E0,0E0,0E0,0E0,0E0,0E0,0E0,0E0,0E0,0E0,0E0,0E0,0E0,0E0,0E0,0E0,0E0,0E0,0E0,0E0,0E0,0E0,0E0,0E0,0E0,0E0,0E0,0E0,0E0,0E0,0E0,0E0,0E0,0E0,0E0,0E0,0E0,0E0,0E0,0E0,0E0,0E0,0E0,0E0,0E0,0E0,0E0,0E0,0E0,0E0,0E0,0E0,0E0,0E0,0E0,0E0,0E0,0E0,0E0,0E0,0E0],"parents":[2147483647,0,0,1,1,2,2,3,3,4,4,5,5,6,6,7,7,8,8,9,9,10,10,11,11,12,12,13,13,14,14,15,15,16,16,17,17,18,18,19,19,20,20,21,21,22,22,23,23,24,24,25,25,26,26,27,27,28,28,29,29,30,30,31,31,32,32,33,33,34,34,35,35,36,36,37,37,38,38,39,39,40,40,41,41,42,42,43,43,44,44,45,45,46,46,47,47,48,48,49,49,50,50,51,51,52,52,53,53,54,54,55,55,56,56,57,57,58,58,59,59,60,60,61,61,62,62],"right_children":[2,4,6,8,10,12,14,16,18,20,22,24,26,28,30,32,34,36,38,40,42,44,46,48,50,52,54,56,58,60,62,64,66,68,70,72,74,76,78,80,82,84,86,88,90,92,94,96,98,100,102,104,106,108,110,112,114,116,118,120,122,124,126,-1,-1,-1,-1,-1,-1,-1,-1,-1,-1,-1,-1,-1,-1,-1,-1,-1,-1,-1,-1,-1,-1,-1,-1,-1,-1,-1,-1,-1,-1,-1,-1,-1,-1,-1,-1,-1,-1,-1,-1,-1,-1,-1,-1,-1,-1,-1,-1,-1,-1,-1,-1,-1,-1,-1,-1,-1,-1,-1,-1,-1,-1,-1,-1],"split_conditions":[2.012E3,1.40316E5,1.78396E5,2.4E0,3.4E0,2.9E0,3.3E0,2.005E3,2.006E3,2.007E3,2.007E3,2.017E3,2.017E3,2.02E3,2.018E3,1E0,6.0434E4,5.5785E4,7.6669E4,2.06535E5,2.29777E5,2.28898E5,2.20377E5,9.3537E4,8.5335E4,1.01708E5,9.3537E4,1E0,1E0,1E0,1E0,8.0739E4,5.0573E4,3E0,1E0,1E0,1E0,3.8E0,1E0,1E0,1E0,2E0,2.3E0,1E0,1E0,1E0,1E0,1E0,1E0,1E0,1E0,1E0,1E0,1E0,1E0,2.1E0,2.016E3,2.63062E5,2.24283E5,2.28898E5,2.49984E5,2.29777E5,2.38967E5,-1.16522964E2,-2.3167256E2,-2.2112341E2,-3.7147018E2,3.541766E1,-8.062522E1,-3.0763874E1,-1.8510295E2,1.3655565E2,-9.542231E0,-1.7562017E1,-1.3749727E2,1.4871414E2,2.8632925E2,1.6430792E2,9.258526E0,-2.774535E2,-4.399295E2,-4.3453842E2,-5.7359015E2,-3.0674625E2,-1.8055888E2,-4.606621E2,-3.135007E2,-1.1038857E2,-2.5282837E2,-2.621073E2,-4.1813718E2,6.2951893E1,-7.972117E1,-8.8199974E1,-2.2006812E2,2.2838953E2,1.1321792E2,9.686084E1,-6.2102E1,4.651837E2,3.119873E2,2.9419086E2,1.3504826E2,4.7378766E2,3.076719E2,2.6609415E2,1.2926378E2,6.3323236E2,5.0142538E2,4.7319382E2,3.2336215E2,-1.24104836E2,-3.1329353E0,-2.6293405E2,-1.3635333E2,1.7559274E2,4.310973E1,6.852256E1,-6.1733864E1,1.998639E2,6.8787796E1,1.8570778E1,-9.884073E1,3.8833328E2,2.3820166E2,2.1604874E2,8.212702E1],"split_indices":[2,6,6,3,3,3,3,2,2,2,2,2,2,2,2,5,6,6,6,6,6,6,6,6,6,6,6,5,5,5,5,6,6,4,5,5,5,3,5,5,5,3,3,5,5,5,5,5,5,5,5,5,5,5,5,3,2,6,6,6,6,6,6,0,0,0,0,0,0,0,0,0,0,0,0,0,0,0,0,0,0,0,0,0,0,0,0,0,0,0,0,0,0,0,0,0,0,0,0,0,0,0,0,0,0,0,0,0,0,0,0,0,0,0,0,0,0,0,0,0,0,0,0,0,0,0,0],"split_type":[0,0,0,0,0,0,0,0,0,0,0,0,0,0,0,0,0,0,0,0,0,0,0,0,0,0,0,0,0,0,0,0,0,0,0,0,0,0,0,0,0,0,0,0,0,0,0,0,0,0,0,0,0,0,0,0,0,0,0,0,0,0,0,0,0,0,0,0,0,0,0,0,0,0,0,0,0,0,0,0,0,0,0,0,0,0,0,0,0,0,0,0,0,0,0,0,0,0,0,0,0,0,0,0,0,0,0,0,0,0,0,0,0,0,0,0,0,0,0,0,0,0,0,0,0,0,0],"sum_hessian":[8E3,3.994E3,4.006E3,1.863E3,2.131E3,2.398E3,1.608E3,6.07E2,1.256E3,1.259E3,8.72E2,1.138E3,1.26E3,8.83E2,7.25E2,2.59E2,3.48E2,5.91E2,6.65E2,7.46E2,5.13E2,5.01E2,3.71E2,4.75E2,6.63E2,5.34E2,7.26E2,5.97E2,2.86E2,3.62E2,3.63E2,8.4E1,1.75E2,1.65E2,1.83E2,2.41E2,3.5E2,3.47E2,3.18E2,3.28E2,4.18E2,2.8E2,2.33E2,2.53E2,2.48E2,1.96E2,1.75E2,2.46E2,2.29E2,3.29E2,3.34E2,3.09E2,2.25E2,3.78E2,3.48E2,1.76E2,4.21E2,9.6E1,1.9E2,1.19E2,2.43E2,1.23E2,2.4E2,4.7E1,3.7E1,6.7E1,1.08E2,1.3E2,3.5E1,5.3E1,1.3E2,9.1E1,1.5E2,1.17E2,2.33E2,1.95E2,1.52E2,1.2E2,1.98E2,1.12E2,2.16E2,1.23E2,2.95E2,1.29E2,1.51E2,1.26E2,1.07E2,7.9E1,1.74E2,7.3E1,1.75E2,7E1,1.26E2,5.5E1,1.2E2,7.2E1,1.74E2,6.9E1,1.6E2,1.12E2,2.17E2,1.21E2,2.13E2,1.08E2,2.01E2,7E1,1.55E2,1.42E2,2.36E2,1.26E2,2.22E2,7.9E1,9.7E1,2.06E2,2.15E2,7E1,2.6E1,7.6E1,1.14E2,5.3E1,6.6E1,1.53E2,9E1,6E1,6.3E1,1.27E2,1.13E2],"tree_param":{"num_deleted":"0","num_feature":"9","num_nodes":"127","size_leaf_vector":"1"}},{"base_weights":[6.581111E-2,-1.47737E3,1.7598811E3,9.730342E0,-2.785817E3,2.975667E3,3.1038458E2,-1.0047628E3,8.232896E2,-3.6605933E3,-1.9063602E3,2.208524E3,4.028306E3,-6.9354126E2,1.198253E3,-2.0777407E3,-1.8401497E2,-3.6058296E1,1.7089302E3,-4.3534194E3,-2.8387122E3,-2.8007937E3,-8.629134E2,1.2802838E3,2.966104E3,4.8566313E3,3.2789465E3,-1.2869485E3,3.8303278E2,1.5304709E2,1.7928595E3,-1.1867517E3,-2.5499236E3,5.8616144E2,-7.205064E2,9.920111E2,-5.341021E2,2.331427E3,9.94024E2,-3.3805994E3,-4.811207E3,-2.1360034E3,-3.5794443E3,-1.9385371E3,-3.4566768E3,-2.2236E2,-1.7650343E3,2.2597275E3,7.3101184E2,3.612904E3,2.2932961E3,4.2358984E3,5.5895703E3,2.487895E3,3.9224272E3,-5.9573016E2,-1.9057659E3,1.3270142E3,-1.11560974E2,1.0738052E3,-2.974294E2,2.8235952E3,1.2405098E3,-7.082637E1,-2.1283308E2,-1.7737071E2,-3.150894E2,1.3333737E2,1.1396636E1,1.0761096E1,-1.0974383E2,1.6552592E2,4.043096E1,1.5852982E1,-1.2134075E2,3.153937E2,1.91674E2,1.8362175E2,5.089796E1,-2.6116113E2,-4.0669125E2,-4.2960114E2,-5.4290643E2,-1.193976E2,-2.563318E2,-2.5718753E2,-3.9783286E2,-1.5669518E2,-2.9249335E2,-2.3817773E2,-3.8917484E2,7.122974E1,-7.158324E1,-2.0888805E2,-9.329004E1,1.7667015E2,2.733757E2,1.6927164E2,2.3820272E1,4.471717E2,3.1502518E2,3.0732965E2,1.7990007E2,5.1144174E2,3.7099063E2,6.351485E2,5.0838754E2,3.4608752E2,1.9298761E2,4.9442188E2,3.424835E2,-1.1943479E2,-3.5447156E0,-9.858242E1,-2.242106E2,1.9792906E2,6.609676E1,5.5513367E1,-7.284804E1,2.0992815E2,4.9348766E1,2.3585333E1,-8.791294E1,3.5138547E2,2.0213312E2,1.7474995E2,5.7466267E1],"categories":[],"categories_nodes":[],"categories_segments":[],"categories_sizes":[],"default_left":[0,0,0,0,0,0,0,0,0,0,0,0,0,0,0,0,0,0,0,0,0,0,0,0,0,0,0,0,0,0,0,0,0,0,0,0,0,0,0,0,0,0,0,0,0,0,0,0,0,0,0,0,0,0,0,0,0,0,0,0,0,0,0,0,0,0,0,0,0,0,0,0,0,0,0,0,0,0,0,0,0,0,0,0,0,0,0,0,0,0,0,0,0,0,0,0,0,0,0,0,0,0,0,0,0,0,0,0,0,0,0,0,0,0,0,0,0,0,0,0,0,0,0,0,0,0,0],"id":1,"left_children":[1,3,5,7,9,11,13,15,17,19,21,23,25,27,29,31,33,35,37,39,41,43,45,47,49,51,53,55,57,59,61,63,65,67,69,71,73,75,77,79,81,83,85,87,89,91,93,95,97,99,101,103,105,107,109,111,113,115,117,119,121,123,125,-1,-1,-1,-1,-1,-1,-1,-1,-1,-1,-1,-1,-1,-1,-1,-1,-1,-1,-1,-1,-1,-1,-1,-1,-1,-1,-1,-1,-1,-1,-1,-1,-1,-1,-1,-1,-1,-1,-1,-1,-1,-1,-1,-1,-1,-1,-1,-1,-1,-1,-1,-1,-1,-1,-1,-1,-1,-1,-1,-1,-1,-1,-1,-1],"loss_changes":[2.0805313E10,8.464221E9,6.434912E9,1.6820658E9,1.7732444E9,1.5948493E9,1.4867182E9,7.983622E8,8.6083565E8,6.4760115E8,1.076471E9,8.0560384E8,5.0299187E8,5.0070995E8,5.497409E8,1.623127E8,2.1321675E8,2.949434E8,2.455625E8,2.629673E8,2.6979123E8,3.4506496E8,3.0876074E8,2.775604E8,2.67179E8,1.56032E8,2.1523149E8,2.1487232E8,1.304096E8,1.338785E8,3.175977E8,6.066632E7,1.1383091E8,7.464798E7,9.500984E7,7.261166E7,1.827497E8,9.525683E7,1.0568426E8,9.704294E7,1.1164262E8,1.0804096E8,9.345946E7,9.474643E7,1.5534592E8,1.4533533E8,5.787667E7,3.8640064E7,1.5789168E8,1.1345613E8,1.1514842E8,8.176256E7,3.629312E7,1.024521E8,1.0610867E8,8.0452536E7,8.009363E7,4.039861E7,7.6083016E7,6.2044824E7,6.752304E7,1.0143616E8,1.2356198E8,0E0,0E0,0E0,0E0,0E0,0E0,0E0,0E0,0E0,0E0,0E0,0E0,0E0,0E0,0E0,0E0,0E0,0E0,0E0,0E0,0E0,0E0,0E0,0E0,0E0,0E0,0E0,0E0,0E0,0E0,0E0,0E0,0E0,0E0,0E0,0E0,0E0,0E0,0E0,0E0,0E0,0E0,0E0,0E0,0E0,0E0,0E0,0E0,0E0,0E0,0E0,0E0,0E0,0E0,0E0,0E0,0E0,0E0,0E0,0E0,0E0,0E0,0E0,0E0],"parents":[2147483647,0,0,1,1,2,2,3,3,4,4,5,5,6,6,7,7,8,8,9,9,10,10,11,11,12,12,13,13,14,14,15,15,16,16,17,17,18,18,19,19,20,20,21,21,22,22,23,23,24,24,25,25,26,26,27,27,28,28,29,29,30,30,31,31,32,32,33,33,34,34,35,35,36,36,37,37,38,38,39,39,40,40,41,41,42,42,43,43,44,44,45,45,46,46,47,47,48,48,49,49,50,50,51,51,52,52,53,53,54,54,55,55,56,56,57,57,58,58,59,59,60,60,61,61,62,62],"right_children":[2,4,6,8,10,12,14,16,18,20,22,24,26,28,30,32,34,36,38,40,42,44,46,48,50,52,54,56,58,60,62,64,66,68,70,72,74,76,78,80,82,84,86,88,90,92,94,96,98,100,102,104,106,108,110,112,114,116,118,120,122,124,126,-1,-1,-1,-1,-1,-1,-1,-1,-1,-1,-1,-1,-1,-1,-1,-1,-1,-1,-1,-1,-1,-1,-1,-1,-1,-1,-1,-1,-1,-1,-1,-1,-1,-1,-1,-1,-1,-1,-1,-1,-1,-1,-1,-1,-1,-1,-1,-1,-1,-1,-1,-1,-1,-1,-1,-1,-1,-1,-1,-1,-1,-1,-1,-1],"split_conditions":[2.013E3,1.40316E5,1.63677E5,2.006E3,3E0,3.3E0,3E0,2.8E0,3.1E0,2.007E3,2.007E3,2.018E3,7.6669E4,2.02E3,2.017E3,1E0,5.5785E4,1E0,7.6669E4,1E0,2.24283E5,2.14401E5,2.27466E5,6.1794E4,7.9509E4,2.019E3,2.018E3,2.3443E5,1E0,1E0,1E0,9.5603E4,5.3507E4,1E0,1E0,6.5453E4,6.5453E4,1E0,1E0,2.08862E5,2.21586E5,1E0,1E0,3E0,1E0,1E0,4.5E0,2.1E0,1E0,1E0,1E0,1E0,1E0,1E0,1E0,2.016E3,1E0,2.22808E5,2.24283E5,2.0562E5,2.36754E5,2.26265E5,2.35553E5,-7.082637E1,-2.1283308E2,-1.7737071E2,-3.150894E2,1.3333737E2,1.1396636E1,1.0761096E1,-1.0974383E2,1.6552592E2,4.043096E1,1.5852982E1,-1.2134075E2,3.153937E2,1.91674E2,1.8362175E2,5.089796E1,-2.6116113E2,-4.0669125E2,-4.2960114E2,-5.4290643E2,-1.193976E2,-2.563318E2,-2.5718753E2,-3.9783286E2,-1.5669518E2,-2.9249335E2,-2.3817773E2,-3.8917484E2,7.122974E1,-7.158324E1,-2.0888805E2,-9.329004E1,1.7667015E2,2.733757E2,1.6927164E2,2.3820272E1,4.471717E2,3.1502518E2,3.0732965E2,1.7990007E2,5.1144174E2,3.7099063E2,6.351485E2,5.0838754E2,3.4608752E2,1.9298761E2,4.9442188E2,3.424835E2,-1.1943479E2,-3.5447156E0,-9.858242E1,-2.242106E2,1.9792906E2,6.609676E1,5.5513367E1,-7.284804E1,2.0992815E2,4.9348766E1,2.3585333E1,-8.791294E1,3.5138547E2,2.0213312E2,1.7474995E2,5.7466267E1],"split_indices":[2,6,6,2,3,3,3,3,3,2,2,2,6,2,2,5,6,5,6,5,6,6,6,6,6,2,2,6,5,5,5,6,6,5,5,6,6,5,5,6,6,5,5,4,5,5,3,3,5,5,5,5,5,5,5,2,5,6,6,6,6,6,6,0,0,0,0,0,0,0,0,0,0,0,0,0,0,0,0,0,0,0,0,0,0,0,0,0,0,0,0,0,0,0,0,0,0,0,0,0,0,0,0,0,0,0,0,0,0,0,0,0,0,0,0,0,0,0,0,0,0,0,0,0,0,0,0],"split_type":[0,0,0,0,0,0,0,0,0,0,0,0,0,0,0,0,0,0,0,0,0,0,0,0,0,0,0,0,0,0,0,0,0,0,0,0,0,0,0,0,0,0,0,0,0,0,0,0,0,0,0,0,0,0,0,0,0,0,0,0,0,0,0,0,0,0,0,0,0,0,0,0,0,0,0,0,0,0,0,0,0,0,0,0,0,0,0,0,0,0,0,0,0,0,0,0,0,0,0,0,0,0,0,0,0,0,0,0,0,0,0,0,0,0,0,0,0,0,0,0,0,0,0,0,0,0,0],"sum_hessian":[8E3,4.349E3,3.651E3,2.036E3,2.313E3,1.985E3,1.666E3,9.06E2,1.13E3,1.158E3,1.155E3,1.15E3,8.35E2,7.82E2,8.84E2,3.92E2,5.14E2,5.74E2,5.56E2,6.26E2,5.32E2,6.21E2,5.34E2,5.18E2,6.32E2,3.94E2,4.41E2,5.04E2,2.78E2,3.21E2,5.63E2,1.37E2,2.55E2,2.11E2,3.03E2,1.87E2,3.87E2,2.96E2,2.6E2,2.03E2,4.23E2,2.75E2,2.57E2,2.7E2,3.51E2,3.13E2,2.21E2,1.85E2,3.33E2,3.2E2,3.12E2,2.17E2,1.77E2,2E2,2.41E2,2.39E2,2.65E2,9.5E1,1.83E2,1.05E2,2.16E2,1.95E2,3.68E2,9.2E1,4.5E1,1.13E2,1.42E2,8.1E1,1.3E2,9.5E1,2.08E2,8.7E1,1E2,1.92E2,1.95E2,9.7E1,1.99E2,9.4E1,1.66E2,9.8E1,1.05E2,2.35E2,1.88E2,8.7E1,1.88E2,7.5E1,1.82E2,1.98E2,7.2E1,1.03E2,2.48E2,1.08E2,2.05E2,1.58E2,6.3E1,9.3E1,9.2E1,1.12E2,2.21E2,1.09E2,2.11E2,1.19E2,1.93E2,7.8E1,1.39E2,6.6E1,1.11E2,7.1E1,1.29E2,7.6E1,1.65E2,1.15E2,1.24E2,7.2E1,1.93E2,4.7E1,4.8E1,8.8E1,9.5E1,3.7E1,6.8E1,1.13E2,1.03E2,1.03E2,9.2E1,2.08E2,1.6E2],"tree_param":{"num_deleted":"0","num_feature":"9","num_nodes":"127","size_leaf_vector":"1"}},{"base_weights":[3.2642782E-1,-1.4592347E3,1.4555165E3,-1.0364981E2,-2.6437334E3,2.586609E3,2.246955E2,-1.2826447E3,4.6670224E2,-3.2683213E3,-1.640407E3,1.7019171E3,3.412329E3,-5.7275195E2,1.1697644E3,-2.2124363E3,-5.862881E2,-3.0951038E2,1.1559683E3,-4.0016233E3,-2.7073433E3,-2.5799724E3,-9.8938873E2,8.6401776E2,2.5719255E3,2.4010515E3,3.9366897E3,-1.1135388E3,5.2777936E2,2.3876566E2,1.8181268E3,-1.4100059E3,-2.587403E3,1.6617389E2,-1.1156573E3,3.240676E2,-8.381684E2,1.9348649E3,7.0394293E2,-3.3042205E3,-4.5296055E3,-1.5411068E3,-3.0508943E3,-1.7663398E3,-3.191606E3,-4.7049228E2,-1.823789E3,1.813585E3,4.475009E2,3.03155E3,1.8370123E3,3.1049854E3,1.7286082E3,4.506985E3,3.279218E3,-5.173752E2,-1.7307892E3,1.2182898E3,-3.1730444E1,1.09081E3,-1.7258133E2,2.7514268E3,1.312963E3,-1.8147496E2,-8.3588554E1,-1.8186003E2,-3.0432855E2,3.9685196E1,-6.608098E1,-1.6130948E2,-4.621197E1,1.0853123E2,-1.2299987E1,-1.4676183E2,-3.5468384E1,2.7539548E2,1.438293E2,1.3500749E2,1.5066924E1,-2.460605E2,-3.7528305E2,-3.7065402E2,-4.8306714E2,-2.3338264E2,-9.742029E1,-2.2082701E2,-3.4101193E2,-7.916516E1,-2.1927689E2,-2.3117967E2,-3.5997028E2,3.782307E1,-8.820838E1,-2.2181432E2,-1.0186511E2,1.23930115E2,2.3371191E2,1.3079648E2,2.78209E0,3.8100027E2,2.605575E2,2.5312955E2,1.4302638E2,2.3878348E2,3.4800696E2,2.6255084E2,1.2909258E2,3.8400354E2,4.9916632E2,3.996411E2,2.8564032E2,3.3387753E1,-9.129712E1,-8.5797005E1,-2.071462E2,2.0307362E2,7.4641815E1,7.890459E1,-4.3232872E1,1.8024248E2,4.4094925E1,3.390499E1,-7.0835594E1,3.5818512E2,2.1436394E2,2.1241019E2,9.228452E1],"categories":[],"categories_nodes":[],"categories_segments":[],"categories_sizes":[],"default_left":[0,0,0,0,0,0,0,0,0,0,0,0,0,0,0,0,0,0,0,0,0,0,0,0,0,0,0,0,0,0,0,0,0,0,0,0,0,0,0,0,0,0,0,0,0,0,0,0,0,0,0,0,0,0,0,0,0,0,0,0,0,0,0,0,0,0,0,0,0,0,0,0,0,0,0,0,0,0,0,0,0,0,0,0,0,0,0,0,0,0,0,0,0,0,0,0,0,0,0,0,0,0,0,0,0,0,0,0,0,0,0,0,0,0,0,0,0,0,0,0,0,0,0,0,0,0,0],"id":2,"left_children":[1,3,5,7,9,11,13,15,17,19,21,23,25,27,29,31,33,35,37,39,41,43,45,47,49,51,53,55,57,59,61,63,65,67,69,71,73,75,77,79,81,83,85,87,89,91,93,95,97,99,101,103,105,107,109,111,113,115,117,119,121,123,125,-1,-1,-1,-1,-1,-1,-1,-1,-1,-1,-1,-1,-1,-1,-1,-1,-1,-1,-1,-1,-1,-1,-1,-1,-1,-1,-1,-1,-1,-1,-1,-1,-1,-1,-1,-1,-1,-1,-1,-1,-1,-1,-1,-1,-1,-1,-1,-1,-1,-1,-1,-1,-1,-1,-1,-1,-1,-1,-1,-1,-1,-1,-1,-1],"loss_changes":[1.6995759E10,6.4144517E9,5.577853E9,1.2540308E9,1.33069E9,1.5194931E9,1.4476641E9,3.9236237E8,6.728741E8,5.292892E8,4.990203E8,7.34047E8,5.627136E8,6.20737E8,5.3015206E8,7.458189E7,1.3920264E8,1.9855968E8,2.331239E8,1.9381146E8,2.9459302E8,1.610734E8,2.0956406E8,2.0327194E8,1.616343E8,1.7024755E8,2.5106227E8,2.563241E8,1.3294214E8,1.2706415E8,2.4060864E8,1.8234672E7,5.6150656E7,2.792346E7,6.589883E7,9.202198E7,9.777786E7,9.528288E7,1.510139E8,8.462208E7,6.138931E7,7.502246E7,1.6681984E8,5.894685E7,5.9897344E7,1.054811E8,5.679725E7,4.4306784E7,1.29966616E8,9.054797E7,5.0882496E7,4.01088E7,7.19817E7,1.0270003E8,8.956365E7,1.2052535E8,1.0021235E8,5.752325E7,6.3142216E7,5.3774384E7,6.739933E7,8.367642E7,1.0499635E8,0E0,0E0,0E0,0E0,0E0,0E0,0E0,0E0,0E0,0E0,0E0,0E0,0E0,0E0,0E0,0E0,0E0,0E0,0E0,0E0,0E0,0E0,0E0,0E0,0E0,0E0,0E0,0E0,0E0,0E0,0E0,0E0,0E0,0E0,0E0,0E0,0E0,0E0,0E0,0E0,0E0,0E0,0E0,0E0,0E0,0E0,0E0,0E0,0E0,0E0,0E0,0E0,0E0,0E0,0E0,0E0,0E0,0E0,0E0,0E0,0E0,0E0,0E0,0E0],"parents":[2147483647,0,0,1,1,2,2,3,3,4,4,5,5,6,6,7,7,8,8,9,9,10,10,11,11,12,12,13,13,14,14,15,15,16,16,17,17,18,18,19,19,20,20,21,21,22,22,23,23,24,24,25,25,26,26,27,27,28,28,29,29,30,30,31,31,32,32,33,33,34,34,35,35,36,36,37,37,38,38,39,39,40,40,41,41,42,42,43,43,44,44,45,45,46,46,47,47,48,48,49,49,50,50,51,51,52,52,53,53,54,54,55,55,56,56,57,57,58,58,59,59,60,60,61,61,62,62],"right_children":[2,4,6,8,10,12,14,16,18,20,22,24,26,28,30,32,34,36,38,40,42,44,46,48,50,52,54,56,58,60,62,64,66,68,70,72,74,76,78,80,82,84,86,88,90,92,94,96,98,100,102,104,106,108,110,112,114,116,118,120,122,124,126,-1,-1,-1,-1,-1,-1,-1,-1,-1,-1,-1,-1,-1,-1,-1,-1,-1,-1,-1,-1,-1,-1,-1,-1,-1,-1,-1,-1,-1,-1,-1,-1,-1,-1,-1,-1,-1,-1,-1,-1,-1,-1,-1,-1,-1,-1,-1,-1,-1,-1,-1,-1,-1,-1,-1,-1,-1,-1,-1,-1,-1,-1,-1,-1],"split_conditions":[2.012E3,1.40316E5,1.55289E5,2.4E0,3.5E0,2.9E0,3.3E0,2.005E3,2.006E3,2.005E3,2.005E3,2.018E3,2.016E3,2.02E3,2.017E3,1E0,5.1893E4,6.2906E4,1E0,2.0562E5,1.80395E5,2.13139E5,2.37737E5,5.2585E4,9.3537E4,7.6669E4,8.1786E4,2.3443E5,2.15686E5,1E0,2.01968E5,1.9E0,5.0573E4,3E0,2.009E3,1E0,3.6E0,5.3507E4,6.2906E4,1E0,1E0,2E0,1E0,1E0,1E0,1E0,2.009E3,2.015E3,1E0,1E0,1E0,3.8E0,1E0,3.8E0,1E0,1E0,1E0,1E0,1E0,2.16698E5,2.27466E5,1E0,1E0,-1.8147496E2,-8.3588554E1,-1.8186003E2,-3.0432855E2,3.9685196E1,-6.608098E1,-1.6130948E2,-4.621197E1,1.0853123E2,-1.2299987E1,-1.4676183E2,-3.5468384E1,2.7539548E2,1.438293E2,1.3500749E2,1.5066924E1,-2.460605E2,-3.7528305E2,-3.7065402E2,-4.8306714E2,-2.3338264E2,-9.742029E1,-2.2082701E2,-3.4101193E2,-7.916516E1,-2.1927689E2,-2.3117967E2,-3.5997028E2,3.782307E1,-8.820838E1,-2.2181432E2,-1.0186511E2,1.23930115E2,2.3371191E2,1.3079648E2,2.78209E0,3.8100027E2,2.605575E2,2.5312955E2,1.4302638E2,2.3878348E2,3.4800696E2,2.6255084E2,1.2909258E2,3.8400354E2,4.9916632E2,3.996411E2,2.8564032E2,3.3387753E1,-9.129712E1,-8.5797005E1,-2.071462E2,2.0307362E2,7.4641815E1,7.890459E1,-4.3232872E1,1.8024248E2,4.4094925E1,3.390499E1,-7.0835594E1,3.5818512E2,2.1436394E2,2.1241019E2,9.228452E1],"split_indices":[2,6,6,3,3,3,3,2,2,2,2,2,2,2,2,5,6,6,5,6,6,6,6,6,6,6,6,6,6,5,6,3,6,4,2,5,3,6,6,5,5,3,5,5,5,5,2,2,5,5,5,3,5,3,5,5,5,5,5,6,6,5,5,0,0,0,0,0,0,0,0,0,0,0,0,0,0,0,0,0,0,0,0,0,0,0,0,0,0,0,0,0,0,0,0,0,0,0,0,0,0,0,0,0,0,0,0,0,0,0,0,0,0,0,0,0,0,0,0,0,0,0,0,0,0,0,0],"split_type":[0,0,0,0,0,0,0,0,0,0,0,0,0,0,0,0,0,0,0,0,0,0,0,0,0,0,0,0,0,0,0,0,0,0,0,0,0,0,0,0,0,0,0,0,0,0,0,0,0,0,0,0,0,0,0,0,0,0,0,0,0,0,0,0,0,0,0,0,0,0,0,0,0,0,0,0,0,0,0,0,0,0,0,0,0,0,0,0,0,0,0,0,0,0,0,0,0,0,0,0,0,0,0,0,0,0,0,0,0,0,0,0,0,0,0,0,0,0,0,0,0,0,0,0,0,0,0],"sum_hessian":[8E3,3.994E3,4.006E3,1.863E3,2.131E3,2.087E3,1.919E3,6.07E2,1.256E3,1.312E3,8.19E2,1.009E3,1.078E3,1.041E3,8.78E2,2.59E2,3.48E2,5.91E2,6.65E2,5.66E2,7.46E2,3.34E2,4.85E2,5.15E2,4.94E2,3.7E2,7.08E2,6.98E2,3.43E2,3.61E2,5.17E2,8.4E1,1.75E2,1.44E2,2.04E2,2.69E2,3.22E2,2.43E2,4.22E2,2.47E2,3.19E2,1.71E2,5.75E2,1.45E2,1.89E2,3E2,1.85E2,1.56E2,3.59E2,3.02E2,1.92E2,1.79E2,1.91E2,3.76E2,3.32E2,3.56E2,3.42E2,1.53E2,1.9E2,1.17E2,2.44E2,1.8E2,3.37E2,4.8E1,3.6E1,6.7E1,1.08E2,1.13E2,3.1E1,1.15E2,8.9E1,9.9E1,1.7E2,1.39E2,1.83E2,9E1,1.53E2,1.94E2,2.28E2,8.8E1,1.59E2,8.9E1,2.3E2,7E1,1.01E2,1.74E2,4.01E2,4.5E1,1E2,6.2E1,1.27E2,9.8E1,2.02E2,1.23E2,6.2E1,7.6E1,8E1,1.17E2,2.42E2,1.04E2,1.98E2,6.9E1,1.23E2,6.4E1,1.15E2,6.1E1,1.3E2,1.62E2,2.14E2,1.2E2,2.12E2,1.13E2,2.43E2,9.7E1,2.45E2,5.5E1,9.8E1,6.2E1,1.28E2,5.5E1,6.2E1,1.25E2,1.19E2,7.4E1,1.06E2,1.08E2,2.29E2],"tree_param":{"num_deleted":"0","num_feature":"9","num_nodes":"127","size_leaf_vector":"1"}},{"base_weights":[4.1494617E-1,-1.5802067E3,1.104602E3,-3.7660022E2,-2.6206187E3,2.062824E3,-1.25279724E2,-1.1154713E3,3.7250183E2,-3.0845188E3,-1.5874907E3,1.2899447E3,2.8512378E3,-1.1469183E3,5.655889E2,-1.7563696E3,-5.0102145E2,-3.215287E2,8.5239264E2,-2.4428953E3,-3.577608E3,-9.798233E2,-2.2690852E3,6.300412E2,2.2181362E3,2.096536E3,3.5452336E3,-1.9280905E3,-2.9647916E2,-9.765417E1,1.4269972E3,-1.051164E3,-2.1425117E3,3.716804E2,-9.573397E2,4.8843915E2,-7.3674744E2,1.1915883E3,-2.6589588E1,-1.6069923E3,-2.844683E3,-2.794863E3,-3.9100366E3,-1.9479479E3,-5.457788E2,-2.8813184E3,-1.6899296E3,1.1532993E3,-4.9588657E1,2.7030063E3,1.292173E3,2.6827583E3,1.4468682E3,4.0158691E3,2.7629011E3,-1.0310208E3,-2.2520813E3,3.2083035E2,-8.735882E2,6.504274E2,-5.0203018E2,1.9583062E3,7.5351666E2,-6.5336784E1,-1.7360027E2,-1.7323984E2,-2.853261E2,7.939677E1,-2.457651E1,-5.255253E1,-1.8997772E2,-2.2309408E0,1.1300663E2,-3.871324E1,-1.4724895E2,1.8833278E2,8.122049E1,6.571288E1,-3.0737839E1,-2.066439E2,-6.686489E1,-3.5086484E2,-2.370874E2,-2.506204E2,-3.6569016E2,-4.410379E2,-3.405958E2,-1.0111232E2,-2.3127342E2,-2.783463E1,-1.4275052E2,-2.1252022E2,-3.229217E2,-8.1819664E1,-2.0229982E2,6.038282E1,1.6878099E2,-5.6919567E1,4.8568478E1,3.521634E2,2.2440828E2,9.9828545E1,2.1127254E2,3.433609E2,2.2812498E2,2.1746423E2,1.0283488E2,4.6464438E2,3.6300412E2,3.5013748E2,2.335111E2,-1.302995E2,-1.19995365E1,-1.3956207E2,-2.5788474E2,1.0451104E2,-9.646573E0,-5.251629E0,-1.1928475E2,1.7658078E2,3.0286097E1,-9.527568E1,4.3029137E0,2.706159E2,1.5274394E2,2.4220663E1,1.2542865E2],"categories":[],"categories_nodes":[],"categories_segments":[],"categories_sizes":[],"default_left":[0,0,0,0,0,0,0,0,0,0,0,0,0,0,0,0,0,0,0,0,0,0,0,0,0,0,0,0,0,0,0,0,0,0,0,0,0,0,0,0,0,0,0,0,0,0,0,0,0,0,0,0,0,0,0,0,0,0,0,0,0,0,0,0,0,0,0,0,0,0,0,0,0,0,0,0,0,0,0,0,0,0,0,0,0,0,0,0,0,0,0,0,0,0,0,0,0,0,0,0,0,0,0,0,0,0,0,0,0,0,0,0,0,0,0,0,0,0,0,0,0,0,0,0,0,0,0],"id":3,"left_children":[1,3,5,7,9,11,13,15,17,19,21,23,25,27,29,31,33,35,37,39,41,43,45,47,49,51,53,55,57,59,61,63,65,67,69,71,73,75,77,79,81,83,85,87,89,91,93,95,97,99,101,103,105,107,109,111,113,115,117,119,121,123,125,-1,-1,-1,-1,-1,-1,-1,-1,-1,-1,-1,-1,-1,-1,-1,-1,-1,-1,-1,-1,-1,-1,-1,-1,-1,-1,-1,-1,-1,-1,-1,-1,-1,-1,-1,-1,-1,-1,-1,-1,-1,-1,-1,-1,-1,-1,-1,-1,-1,-1,-1,-1,-1,-1,-1,-1,-1,-1,-1,-1,-1,-1,-1,-1],"loss_changes":[1.3965907E10,4.1201572E9,5.552169E9,8.4559443E8,8.410112E8,1.6098785E9,1.4574572E9,3.0195213E8,2.5306576E8,3.7629133E8,2.2516288E8,8.187625E8,6.7869286E8,5.5282304E8,7.040093E8,1.0013632E8,1.5725837E8,1.04953464E8,1.3389965E8,1.7410406E8,1.6757453E8,1.2163792E8,8.661197E7,2.7886467E8,2.4613555E8,2.3605376E8,2.3964467E8,1.2381696E8,1.4278222E8,2.1117339E8,1.9031949E8,3.5643296E7,6.5597056E7,3.565568E7,1.0440379E8,3.476249E7,5.241861E7,8.34991E7,2.439153E7,7.40641E7,1.0430541E8,4.259277E7,1.057879E8,2.841824E7,4.7470524E7,2.5755712E7,3.75416E7,1.2908909E8,9.539754E7,1.2884736E8,4.443283E7,9.165312E7,8.944461E7,8.604621E7,7.364506E7,2.8833392E7,8.539699E7,5.8735216E7,5.4199296E7,9.444405E7,1.1133073E8,9.221158E7,6.063579E7,0E0,0E0,0E0,0E0,0E0,0E0,0E0,0E0,0E0,0E0,0E0,0E0,0E0,0E0,0E0,0E0,0E0,0E0,0E0,0E0,0E0,0E0,0E0,0E0,0E0,0E0,0E0,0E0,0E0,0E0,0E0,0E0,0E0,0E0,0E0,0E0,0E0,0E0,0E0,0E0,0E0,0E0,0E0,0E0,0E0,0E0,0E0,0E0,0E0,0E0,0E0,0E0,0E0,0E0,0E0,0E0,0E0,0E0,0E0,0E0,0E0,0E0,0E0,0E0],"parents":[2147483647,0,0,1,1,2,2,3,3,4,4,5,5,6,6,7,7,8,8,9,9,10,10,11,11,12,12,13,13,14,14,15,15,16,16,17,17,18,18,19,19,20,20,21,21,22,22,23,23,24,24,25,25,26,26,27,27,28,28,29,29,30,30,31,31,32,32,33,33,34,34,35,35,36,36,37,37,38,38,39,39,40,40,41,41,42,42,43,43,44,44,45,45,46,46,47,47,48,48,49,49,50,50,51,51,52,52,53,53,54,54,55,55,56,56,57,57,58,58,59,59,60,60,61,61,62,62],"right_children":[2,4,6,8,10,12,14,16,18,20,22,24,26,28,30,32,34,36,38,40,42,44,46,48,50,52,54,56,58,60,62,64,66,68,70,72,74,76,78,80,82,84,86,88,90,92,94,96,98,100,102,104,106,108,110,112,114,116,118,120,122,124,126,-1,-1,-1,-1,-1,-1,-1,-1,-1,-1,-1,-1,-1,-1,-1,-1,-1,-1,-1,-1,-1,-1,-1,-1,-1,-1,-1,-1,-1,-1,-1,-1,-1,-1,-1,-1,-1,-1,-1,-1,-1,-1,-1,-1,-1,-1,-1,-1,-1,-1,-1,-1,-1,-1,-1,-1,-1,-1,-1,-1,-1,-1,-1,-1],"split_conditions":[2.01E3,1.40316E5,1.67685E5,3.1E0,3.8E0,2.017E3,2.7E0,2.005E3,2.004E3,2.08862E5,2.29777E5,3.4E0,2.9E0,2.017E3,2.018E3,1E0,1E0,1E0,1.04108E5,1E0,1E0,2.003E3,2.005E3,9.5603E4,1.08785E5,8.5335E4,1.05427E5,2.03082E5,2.3443E5,1E0,2.38967E5,9.5603E4,8.6374E4,7.8043E4,8.9735E4,4.1E0,8.9735E4,1E0,1E0,2.006E3,2.004E3,3E0,2.5E0,1E0,3E0,1E0,1E0,2.1E0,2.4E0,1E0,2.015E3,1E0,1E0,1E0,1E0,2.015E3,1E0,1E0,1E0,1.93635E5,4E0,1E0,3.8E0,-6.5336784E1,-1.7360027E2,-1.7323984E2,-2.853261E2,7.939677E1,-2.457651E1,-5.255253E1,-1.8997772E2,-2.2309408E0,1.1300663E2,-3.871324E1,-1.4724895E2,1.8833278E2,8.122049E1,6.571288E1,-3.0737839E1,-2.066439E2,-6.686489E1,-3.5086484E2,-2.370874E2,-2.506204E2,-3.6569016E2,-4.410379E2,-3.405958E2,-1.0111232E2,-2.3127342E2,-2.783463E1,-1.4275052E2,-2.1252022E2,-3.229217E2,-8.1819664E1,-2.0229982E2,6.038282E1,1.6878099E2,-5.6919567E1,4.8568478E1,3.521634E2,2.2440828E2,9.9828545E1,2.1127254E2,3.433609E2,2.2812498E2,2.1746423E2,1.0283488E2,4.6464438E2,3.6300412E2,3.5013748E2,2.335111E2,-1.302995E2,-1.19995365E1,-1.3956207E2,-2.5788474E2,1.0451104E2,-9.646573E0,-5.251629E0,-1.1928475E2,1.7658078E2,3.0286097E1,-9.527568E1,4.3029137E0,2.706159E2,1.5274394E2,2.4220663E1,1.2542865E2],"split_indices":[2,6,6,3,3,2,3,2,2,6,6,3,3,2,2,5,5,5,6,5,5,2,2,6,6,6,6,6,6,5,6,6,6,6,6,3,6,5,5,2,2,4,3,5,4,5,5,3,3,5,2,5,5,5,5,2,5,5,5,6,3,5,3,0,0,0,0,0,0,0,0,0,0,0,0,0,0,0,0,0,0,0,0,0,0,0,0,0,0,0,0,0,0,0,0,0,0,0,0,0,0,0,0,0,0,0,0,0,0,0,0,0,0,0,0,0,0,0,0,0,0,0,0,0,0,0,0],"split_type":[0,0,0,0,0,0,0,0,0,0,0,0,0,0,0,0,0,0,0,0,0,0,0,0,0,0,0,0,0,0,0,0,0,0,0,0,0,0,0,0,0,0,0,0,0,0,0,0,0,0,0,0,0,0,0,0,0,0,0,0,0,0,0,0,0,0,0,0,0,0,0,0,0,0,0,0,0,0,0,0,0,0,0,0,0,0,0,0,0,0,0,0,0,0,0,0,0,0,0,0,0,0,0,0,0,0,0,0,0,0,0,0,0,0,0,0,0,0,0,0,0,0,0,0,0,0,0],"sum_hessian":[8E3,3.29E3,4.71E3,1.526E3,1.764E3,2.647E3,2.063E3,7.68E2,7.58E2,1.216E3,5.48E2,1.338E3,1.309E3,8.32E2,1.231E3,3.75E2,3.93E2,3.1E2,4.48E2,5.31E2,6.85E2,2.91E2,2.57E2,7.83E2,5.55E2,6.29E2,6.8E2,4.33E2,3.99E2,6.96E2,5.35E2,1.34E2,2.41E2,1.35E2,2.58E2,1.05E2,2.05E2,3.23E2,1.25E2,1.74E2,3.57E2,2.07E2,4.78E2,8.9E1,2.02E2,1.23E2,1.34E2,4.42E2,3.41E2,3.63E2,1.92E2,3.29E2,3E2,4.22E2,2.58E2,1.16E2,3.17E2,1.93E2,2.06E2,2.44E2,4.52E2,2.98E2,2.37E2,8.6E1,4.8E1,1.55E2,8.6E1,8E1,5.5E1,1.78E2,8E1,5.9E1,4.6E1,1.4E2,6.5E1,1.13E2,2.1E2,3.6E1,8.9E1,1.16E2,5.8E1,1.46E2,2.11E2,1.58E2,4.9E1,2.36E2,2.42E2,2.6E1,6.3E1,1.56E2,4.6E1,4.1E1,8.2E1,3.8E1,9.6E1,2.19E2,2.23E2,1.73E2,1.68E2,1.28E2,2.35E2,1.43E2,4.9E1,1.12E2,2.17E2,1.08E2,1.92E2,1.56E2,2.66E2,9.2E1,1.66E2,8.9E1,2.7E1,8.9E1,2.28E2,7E1,1.23E2,5.8E1,1.48E2,5.7E1,1.87E2,2.47E2,2.05E2,1.07E2,1.91E2,1.18E2,1.19E2],"tree_param":{"num_deleted":"0","num_feature":"9","num_nodes":"127","size_leaf_vector":"1"}},{"base_weights":[2.851452E-1,-1.0060064E3,1.41648E3,7.080699E1,-1.9409358E3,2.1611775E3,1.2874438E2,-6.4903613E2,7.53209E2,-2.5463284E3,-1.1258893E3,1.7040201E3,3.1668352E3,-6.2683307E2,7.654264E2,-1.4472168E3,2.0236498E1,2.0553838E2,1.5736426E3,-3.3018025E3,-2.0408955E3,-1.9973116E3,-4.4139856E2,2.4150056E3,1.1744966E3,4.0542239E3,2.6984075E3,-1.1644175E3,-7.334312E1,3.2914536E2,1.4136901E3,-1.0299255E3,-2.0529958E3,-8.82014E2,2.9249173E2,9.918194E2,-1.6990894E2,2.0981904E3,9.716613E2,-2.5754822E3,-3.6351558E3,-1.3541177E3,-2.5733655E3,-1.319078E3,-2.4025276E3,3.6339212E2,-8.950397E2,1.8495306E3,2.9125706E3,7.366387E2,1.8741355E3,3.2989163E3,4.3088877E3,3.4635676E3,2.2593306E3,-4.457921E2,-1.4356711E3,2.0835315E2,-9.55177E2,-2.3157093E1,1.0612401E3,5.902341E2,1.7521971E3,-3.0641525E1,-1.3957585E2,-2.439984E2,-1.4098569E2,-4.4294464E1,-1.5046237E2,1.2191366E2,-1.5179184E1,1.7971126E2,6.797346E1,1.6296417E1,-9.357331E1,1.1889253E2,2.3522562E2,1.6031299E2,6.162804E1,-1.7719267E2,-3.009912E2,-3.1319382E2,-4.0283557E2,-6.428016E1,-1.6933719E2,-3.0269525E2,-2.0779454E2,-1.6609407E2,-7.804828E1,-1.5481625E2,-2.750002E2,1.1286869E2,-4.052749E0,-2.2349758E1,-1.2540923E2,1.0208131E2,2.1737541E2,2.0778938E2,3.271116E2,1.5069612E2,3.2406612E1,2.53194E2,1.5028127E2,2.8245102E2,3.8690808E2,4.7541064E2,3.2204745E2,3.6905142E2,2.4294112E2,1.5592754E2,2.5972113E2,-9.65367E0,-1.07848816E2,-1.7203464E2,-8.236485E1,8.4367355E1,-1.5085205E1,-1.4683423E2,-4.4404476E1,4.9254604E1,-3.4610874E1,1.7717282E2,6.853945E1,1.24181755E2,1.8747934E1,2.1564864E2,7.8520836E1],"categories":[],"categories_nodes":[],"categories_segments":[],"categories_sizes":[],"default_left":[0,0,0,0,0,0,0,0,0,0,0,0,0,0,0,0,0,0,0,0,0,0,0,0,0,0,0,0,0,0,0,0,0,0,0,0,0,0,0,0,0,0,0,0,0,0,0,0,0,0,0,0,0,0,0,0,0,0,0,0,0,0,0,0,0,0,0,0,0,0,0,0,0,0,0,0,0,0,0,0,0,0,0,0,0,0,0,0,0,0,0,0,0,0,0,0,0,0,0,0,0,0,0,0,0,0,0,0,0,0,0,0,0,0,0,0,0,0,0,0,0,0,0,0,0,0,0],"id":4,"left_children":[1,3,5,7,9,11,13,15,17,19,21,23,25,27,29,31,33,35,37,39,41,43,45,47,49,51,53,55,57,59,61,63,65,67,69,71,73,75,77,79,81,83,85,87,89,91,93,95,97,99,101,103,105,107,109,111,113,115,117,119,121,123,125,-1,-1,-1,-1,-1,-1,-1,-1,-1,-1,-1,-1,-1,-1,-1,-1,-1,-1,-1,-1,-1,-1,-1,-1,-1,-1,-1,-1,-1,-1,-1,-1,-1,-1,-1,-1,-1,-1,-1,-1,-1,-1,-1,-1,-1,-1,-1,-1,-1,-1,-1,-1,-1,-1,-1,-1,-1,-1,-1,-1,-1,-1,-1,-1],"loss_changes":[1.1403689E10,4.7096883E9,3.1873495E9,1.0688976E9,1.2326646E9,9.628252E8,5.868951E8,5.657476E8,5.015753E8,5.415854E8,6.3675584E8,5.430651E8,2.6216038E8,1.6594616E8,1.8676493E8,1.1998144E8,1.4199366E8,1.9825245E8,1.391095E8,1.2961587E8,3.1210496E8,1.2600154E8,2.1937693E8,1.6849382E8,2.5380262E8,2.9064192E7,1.376471E8,5.452512E7,6.875998E7,1.0241832E8,7.311216E7,7.580125E7,4.5341824E7,3.596496E7,1.8297678E8,5.331485E7,1.1614212E8,5.218445E7,4.613851E7,5.8898944E7,6.4748544E7,9.037062E7,1.0269747E8,3.1478016E7,8.27255E7,6.712426E7,9.230938E7,7.62384E7,9.106432E7,1.62868E8,7.435738E7,5.57152E6,6.464563E7,2.7647232E7,6.170688E7,1.7352716E7,3.429968E7,4.8051456E7,1.6921776E7,4.4971664E7,3.3233008E7,2.049902E7,7.180397E7,0E0,0E0,0E0,0E0,0E0,0E0,0E0,0E0,0E0,0E0,0E0,0E0,0E0,0E0,0E0,0E0,0E0,0E0,0E0,0E0,0E0,0E0,0E0,0E0,0E0,0E0,0E0,0E0,0E0,0E0,0E0,0E0,0E0,0E0,0E0,0E0,0E0,0E0,0E0,0E0,0E0,0E0,0E0,0E0,0E0,0E0,0E0,0E0,0E0,0E0,0E0,0E0,0E0,0E0,0E0,0E0,0E0,0E0,0E0,0E0,0E0,0E0,0E0,0E0],"parents":[2147483647,0,0,1,1,2,2,3,3,4,4,5,5,6,6,7,7,8,8,9,9,10,10,11,11,12,12,13,13,14,14,15,15,16,16,17,17,18,18,19,19,20,20,21,21,22,22,23,23,24,24,25,25,26,26,27,27,28,28,29,29,30,30,31,31,32,32,33,33,34,34,35,35,36,36,37,37,38,38,39,39,40,40,41,41,42,42,43,43,44,44,45,45,46,46,47,47,48,48,49,49,50,50,51,51,52,52,53,53,54,54,55,55,56,56,57,57,58,58,59,59,60,60,61,61,62,62],"right_children":[2,4,6,8,10,12,14,16,18,20,22,24,26,28,30,32,34,36,38,40,42,44,46,48,50,52,54,56,58,60,62,64,66,68,70,72,74,76,78,80,82,84,86,88,90,92,94,96,98,100,102,104,106,108,110,112,114,116,118,120,122,124,126,-1,-1,-1,-1,-1,-1,-1,-1,-1,-1,-1,-1,-1,-1,-1,-1,-1,-1,-1,-1,-1,-1,-1,-1,-1,-1,-1,-1,-1,-1,-1,-1,-1,-1,-1,-1,-1,-1,-1,-1,-1,-1,-1,-1,-1,-1,-1,-1,-1,-1,-1,-1,-1,-1,-1,-1,-1,-1,-1,-1,-1,-1,-1,-1],"split_conditions":[2.014E3,1.40316E5,1.8824E5,2.007E3,2.008E3,3.8E0,2.9E0,2.9E0,3.4E0,2.6E0,2.8E0,7.9509E4,6.7973E4,2.019E3,2.02E3,8.1786E4,1E0,1E0,7.6669E4,1E0,2.14401E5,2.0415E5,1.93635E5,2.019E3,2.02E3,1E0,1E0,1E0,2.74097E5,4.4E0,1E0,1E0,2.1E0,8.8716E4,2E0,3.8814E4,9.4648E4,1E0,1E0,1.87222E5,2.0738E5,1E0,2.004E3,2.1E0,1E0,1E0,1E0,1E0,1.9E0,1E0,1E0,2.02E3,3E0,3E0,2.017E3,3E0,2.3E0,1E0,2E0,2.30974E5,1E0,1E0,3E0,-3.0641525E1,-1.3957585E2,-2.439984E2,-1.4098569E2,-4.4294464E1,-1.5046237E2,1.2191366E2,-1.5179184E1,1.7971126E2,6.797346E1,1.6296417E1,-9.357331E1,1.1889253E2,2.3522562E2,1.6031299E2,6.162804E1,-1.7719267E2,-3.009912E2,-3.1319382E2,-4.0283557E2,-6.428016E1,-1.6933719E2,-3.0269525E2,-2.0779454E2,-1.6609407E2,-7.804828E1,-1.5481625E2,-2.750002E2,1.1286869E2,-4.052749E0,-2.2349758E1,-1.2540923E2,1.0208131E2,2.1737541E2,2.0778938E2,3.271116E2,1.5069612E2,3.2406612E1,2.53194E2,1.5028127E2,2.8245102E2,3.8690808E2,4.7541064E2,3.2204745E2,3.6905142E2,2.4294112E2,1.5592754E2,2.5972113E2,-9.65367E0,-1.07848816E2,-1.7203464E2,-8.236485E1,8.4367355E1,-1.5085205E1,-1.4683423E2,-4.4404476E1,4.9254604E1,-3.4610874E1,1.7717282E2,6.853945E1,1.24181755E2,1.8747934E1,2.1564864E2,7.8520836E1],"split_indices":[2,6,6,2,2,3,3,3,3,3,3,6,6,2,2,6,4,5,6,5,6,6,6,2,2,4,5,5,6,3,4,5,3,6,4,6,6,4,5,6,6,5,2,3,5,5,5,4,3,5,5,2,4,4,2,4,3,5,3,6,5,5,4,0,0,0,0,0,0,0,0,0,0,0,0,0,0,0,0,0,0,0,0,0,0,0,0,0,0,0,0,0,0,0,0,0,0,0,0,0,0,0,0,0,0,0,0,0,0,0,0,0,0,0,0,0,0,0,0,0,0,0,0,0,0,0,0],"split_type":[0,0,0,0,0,0,0,0,0,0,0,0,0,0,0,0,0,0,0,0,0,0,0,0,0,0,0,0,0,0,0,0,0,0,0,0,0,0,0,0,0,0,0,0,0,0,0,0,0,0,0,0,0,0,0,0,0,0,0,0,0,0,0,0,0,0,0,0,0,0,0,0,0,0,0,0,0,0,0,0,0,0,0,0,0,0,0,0,0,0,0,0,0,0,0,0,0,0,0,0,0,0,0,0,0,0,0,0,0,0,0,0,0,0,0,0,0,0,0,0,0,0,0,0,0,0,0],"sum_hessian":[8E3,4.677E3,3.323E3,2.174E3,2.503E3,2.105E3,1.218E3,1.058E3,1.116E3,1.435E3,1.068E3,1.449E3,6.56E2,5.57E2,6.61E2,4.82E2,5.76E2,6.7E2,4.46E2,5.73E2,8.62E2,4.69E2,5.99E2,6.17E2,8.32E2,2.24E2,4.32E2,2.82E2,2.75E2,3.96E2,2.65E2,2.87E2,1.95E2,1.33E2,4.43E2,2.16E2,4.54E2,2.37E2,2.09E2,1.83E2,3.9E2,3.78E2,4.84E2,1.77E2,2.92E2,2.16E2,3.83E2,2.91E2,3.26E2,5.13E2,3.19E2,6E1,1.64E2,1.55E2,2.77E2,7.8E1,2.04E2,2.09E2,6.6E1,2.68E2,1.28E2,7.8E1,1.87E2,9.7E1,1.9E2,1.2E2,7.5E1,7.9E1,5.4E1,1.43E2,3E2,5.9E1,1.57E2,3.17E2,1.37E2,5.3E1,1.84E2,7.4E1,1.35E2,6.6E1,1.17E2,1.75E2,2.15E2,1.23E2,2.55E2,2.5E2,2.34E2,1.07E2,7E1,8.6E1,2.06E2,7.4E1,1.42E2,1.34E2,2.49E2,8.3E1,2.08E2,1E2,2.26E2,1.78E2,3.35E2,1.13E2,2.06E2,3.6E1,2.4E1,1.14E2,5E1,1.25E2,3E1,9.2E1,1.85E2,5.1E1,2.7E1,1.38E2,6.6E1,7.5E1,1.34E2,3.2E1,3.4E1,1.03E2,1.65E2,4.3E1,8.5E1,2.9E1,4.9E1,1.31E2,5.6E1],"tree_param":{"num_deleted":"0","num_feature":"9","num_nodes":"127","size_leaf_vector":"1"}},{"base_weights":[4.5547625E-1,-1.2910973E3,9.027055E2,-1.821011E2,-2.0355924E3,1.8049941E3,1.5979917E1,-1.00562384E3,2.8800156E2,-2.447756E3,-1.1348561E3,9.4750415E2,2.3015579E3,-1.0419775E3,4.6629993E2,-1.4981099E3,-5.368845E2,9.5320734E2,-6.996513E1,-1.9289144E3,-2.9127275E3,-3.7002817E2,-1.5912222E3,2.1112074E2,1.5027483E3,1.5227897E3,2.8129094E3,-1.7452838E3,-4.2313922E2,-1.8948296E2,1.0930907E3,-8.7883984E2,-1.8021113E3,-2.9902811E1,-9.679742E2,1.6130939E2,1.2836583E3,-6.5416644E2,3.3166388E2,-2.5244333E3,-1.4802701E3,-2.6525022E3,-3.6931165E3,-1.336676E3,-2.7048141E1,-2.1227488E3,-1.1014005E3,5.7730646E2,-4.3059003E2,1.9467893E3,9.816665E2,2.0661567E3,1.028847E3,3.5666594E3,2.5000593E3,-1.3867671E3,-2.446594E3,1.301639E2,-1.0291292E3,-6.1452966E2,4.3835718E2,1.5764219E3,5.4947906E2,-1.5489946E2,-5.010865E1,-2.5105862E2,-1.5276933E2,1.6723995E1,-7.843707E1,-7.0149155E1,-1.7311147E2,-1.6292082E1,8.998636E1,2.1486278E2,9.664053E1,-9.9735985E1,-1.3210774E1,2.521509E0,1.0340746E2,-1.8881395E2,-2.8849973E2,-7.191047E1,-1.8366638E2,-3.4181552E2,-2.2458943E2,-3.03655E2,-3.9314508E2,-1.7128532E2,-7.644045E1,2.0058186E1,-8.143046E1,-1.4403215E2,-2.4387914E2,-8.289385E1,-1.8620198E2,-2.6247482E1,8.461892E1,1.9043594E1,-6.758418E1,2.5418314E2,1.663169E2,1.5137798E2,6.6445E1,2.7996704E2,1.684348E2,2.2165075E1,1.3328029E2,3.0940793E2,4.0719827E2,3.1319022E2,2.106232E2,-2.1821642E2,-1.0649123E2,-1.6695345E2,-2.6886197E2,8.185834E1,-2.3343237E1,-3.6216434E1,-1.3173904E2,-2.0412556E1,-1.24948E2,1.1014077E2,8.33147E0,1.1086151E2,2.1632495E2,2.1282536E1,1.2015745E2],"categories":[],"categories_nodes":[],"categories_segments":[],"categories_sizes":[],"default_left":[0,0,0,0,0,0,0,0,0,0,0,0,0,0,0,0,0,0,0,0,0,0,0,0,0,0,0,0,0,0,0,0,0,0,0,0,0,0,0,0,0,0,0,0,0,0,0,0,0,0,0,0,0,0,0,0,0,0,0,0,0,0,0,0,0,0,0,0,0,0,0,0,0,0,0,0,0,0,0,0,0,0,0,0,0,0,0,0,0,0,0,0,0,0,0,0,0,0,0,0,0,0,0,0,0,0,0,0,0,0,0,0,0,0,0,0,0,0,0,0,0,0,0,0,0,0,0],"id":5,"left_children":[1,3,5,7,9,11,13,15,17,19,21,23,25,27,29,31,33,35,37,39,41,43,45,47,49,51,53,55,57,59,61,63,65,67,69,71,73,75,77,79,81,83,85,87,89,91,93,95,97,99,101,103,105,107,109,111,113,115,117,119,121,123,125,-1,-1,-1,-1,-1,-1,-1,-1,-1,-1,-1,-1,-1,-1,-1,-1,-1,-1,-1,-1,-1,-1,-1,-1,-1,-1,-1,-1,-1,-1,-1,-1,-1,-1,-1,-1,-1,-1,-1,-1,-1,-1,-1,-1,-1,-1,-1,-1,-1,-1,-1,-1,-1,-1,-1,-1,-1,-1,-1,-1,-1,-1,-1,-1],"loss_changes":[9.324759E9,2.716818E9,3.7691597E9,5.1247616E8,7.282145E8,9.920589E8,1.1329348E9,1.1023334E8,2.0080314E8,3.200645E8,2.158169E8,3.504953E8,5.8429235E8,3.0827686E8,6.858196E8,4.24688E7,5.417259E7,7.698954E7,1.2903003E8,1.6752307E8,1.3438822E8,7.721287E7,9.867917E7,8.719315E7,1.1123456E8,1.556887E8,2.0118989E8,8.008224E7,1.2721119E8,2.180283E8,2.2325478E8,1.9222928E7,2.6493888E7,1.7236034E7,2.6036376E7,2.1219224E7,5.500173E7,4.0001664E7,7.014637E7,5.741504E7,9.850829E7,1.5919104E8,1.5446528E7,1.1822496E7,3.1165484E7,3.638739E7,4.073344E7,5.3511536E7,2.069025E7,4.015795E7,3.731064E7,7.342182E7,7.576371E7,4.9251584E7,1.5091738E8,5.4508736E7,1.638688E7,5.0002124E7,3.432195E7,1.2665042E8,7.759391E7,1.214112E8,8.821501E7,0E0,0E0,0E0,0E0,0E0,0E0,0E0,0E0,0E0,0E0,0E0,0E0,0E0,0E0,0E0,0E0,0E0,0E0,0E0,0E0,0E0,0E0,0E0,0E0,0E0,0E0,0E0,0E0,0E0,0E0,0E0,0E0,0E0,0E0,0E0,0E0,0E0,0E0,0E0,0E0,0E0,0E0,0E0,0E0,0E0,0E0,0E0,0E0,0E0,0E0,0E0,0E0,0E0,0E0,0E0,0E0,0E0,0E0,0E0,0E0,0E0,0E0,0E0,0E0],"parents":[2147483647,0,0,1,1,2,2,3,3,4,4,5,5,6,6,7,7,8,8,9,9,10,10,11,11,12,12,13,13,14,14,15,15,16,16,17,17,18,18,19,19,20,20,21,21,22,22,23,23,24,24,25,25,26,26,27,27,28,28,29,29,30,30,31,31,32,32,33,33,34,34,35,35,36,36,37,37,38,38,39,39,40,40,41,41,42,42,43,43,44,44,45,45,46,46,47,47,48,48,49,49,50,50,51,51,52,52,53,53,54,54,55,55,56,56,57,57,58,58,59,59,60,60,61,61,62,62],"right_children":[2,4,6,8,10,12,14,16,18,20,22,24,26,28,30,32,34,36,38,40,42,44,46,48,50,52,54,56,58,60,62,64,66,68,70,72,74,76,78,80,82,84,86,88,90,92,94,96,98,100,102,104,106,108,110,112,114,116,118,120,122,124,126,-1,-1,-1,-1,-1,-1,-1,-1,-1,-1,-1,-1,-1,-1,-1,-1,-1,-1,-1,-1,-1,-1,-1,-1,-1,-1,-1,-1,-1,-1,-1,-1,-1,-1,-1,-1,-1,-1,-1,-1,-1,-1,-1,-1,-1,-1,-1,-1,-1,-1,-1,-1,-1,-1,-1,-1,-1,-1,-1,-1,-1,-1,-1,-1],"split_conditions":[2.01E3,1.22265E5,1.4768E5,2.5E0,3.8E0,2.015E3,2.3E0,2.005E3,1E0,2.0562E5,1.90357E5,2.7E0,2.6E0,2.016E3,2.017E3,1E0,5.1893E4,2.003E3,2.004E3,2.004E3,3E0,2.003E3,2.005E3,9.4648E4,8.1786E4,6.5453E4,4.5081E4,2.52417E5,2.32233E5,4E0,2.26265E5,1E0,1E0,3E0,3E0,4.2E0,2.8687E4,4.1E0,4.3E0,1E0,1E0,1E0,1E0,4.5E0,3E0,1E0,3E0,1E0,1E0,1E0,1E0,1E0,1E0,4E0,1E0,1E0,1E0,1E0,1E0,2.37737E5,1E0,3.8E0,4.1E0,-1.5489946E2,-5.010865E1,-2.5105862E2,-1.5276933E2,1.6723995E1,-7.843707E1,-7.0149155E1,-1.7311147E2,-1.6292082E1,8.998636E1,2.1486278E2,9.664053E1,-9.9735985E1,-1.3210774E1,2.521509E0,1.0340746E2,-1.8881395E2,-2.8849973E2,-7.191047E1,-1.8366638E2,-3.4181552E2,-2.2458943E2,-3.03655E2,-3.9314508E2,-1.7128532E2,-7.644045E1,2.0058186E1,-8.143046E1,-1.4403215E2,-2.4387914E2,-8.289385E1,-1.8620198E2,-2.6247482E1,8.461892E1,1.9043594E1,-6.758418E1,2.5418314E2,1.663169E2,1.5137798E2,6.6445E1,2.7996704E2,1.684348E2,2.2165075E1,1.3328029E2,3.0940793E2,4.0719827E2,3.1319022E2,2.106232E2,-2.1821642E2,-1.0649123E2,-1.6695345E2,-2.6886197E2,8.185834E1,-2.3343237E1,-3.6216434E1,-1.3173904E2,-2.0412556E1,-1.24948E2,1.1014077E2,8.33147E0,1.1086151E2,2.1632495E2,2.1282536E1,1.2015745E2],"split_indices":[2,6,6,3,3,2,3,2,5,6,6,3,3,2,2,5,6,2,2,2,4,2,2,6,6,6,6,6,6,3,6,4,4,4,4,3,6,3,3,5,5,4,5,3,4,5,4,4,5,5,5,5,4,3,5,4,5,5,5,6,5,3,3,0,0,0,0,0,0,0,0,0,0,0,0,0,0,0,0,0,0,0,0,0,0,0,0,0,0,0,0,0,0,0,0,0,0,0,0,0,0,0,0,0,0,0,0,0,0,0,0,0,0,0,0,0,0,0,0,0,0,0,0,0,0,0,0],"split_type":[0,0,0,0,0,0,0,0,0,0,0,0,0,0,0,0,0,0,0,0,0,0,0,0,0,0,0,0,0,0,0,0,0,0,0,0,0,0,0,0,0,0,0,0,0,0,0,0,0,0,0,0,0,0,0,0,0,0,0,0,0,0,0,0,0,0,0,0,0,0,0,0,0,0,0,0,0,0,0,0,0,0,0,0,0,0,0,0,0,0,0,0,0,0,0,0,0,0,0,0,0,0,0,0,0,0,0,0,0,0,0,0,0,0,0,0,0,0,0,0,0,0,0,0,0,0,0],"sum_hessian":[8E3,3.29E3,4.71E3,1.322E3,1.968E3,2.334E3,2.376E3,4.8E2,8.42E2,1.349E3,6.19E2,8.57E2,1.477E3,7.09E2,1.667E3,2.33E2,2.47E2,2.94E2,5.48E2,6.4E2,7.09E2,2.32E2,3.87E2,3.69E2,4.88E2,5.87E2,8.9E2,3.31E2,3.78E2,8.15E2,8.52E2,7.8E1,1.55E2,1.14E2,1.33E2,8.7E1,2.07E2,2.23E2,3.25E2,2.73E2,3.67E2,5.35E2,1.74E2,6E1,1.72E2,1.84E2,2.03E2,2.35E2,1.34E2,2.62E2,2.26E2,2.78E2,3.09E2,2.58E2,6.32E2,2.21E2,1.1E2,1.98E2,1.8E2,4.86E2,3.29E2,4.5E2,4.02E2,2.7E1,5.1E1,4.1E1,1.14E2,9.1E1,2.3E1,1E2,3.3E1,6.1E1,2.6E1,5.4E1,1.53E2,1.34E2,8.9E1,2.27E2,9.8E1,1.01E2,1.72E2,1.18E2,2.49E2,1.83E2,3.52E2,5E1,1.24E2,3.5E1,2.5E1,1.34E2,3.8E1,6E1,1.24E2,1.51E2,5.2E1,5.7E1,1.78E2,3.8E1,9.6E1,8.2E1,1.8E2,8.3E1,1.43E2,9.3E1,1.85E2,8.5E1,2.24E2,1.37E2,1.21E2,2.4E2,3.92E2,6.2E1,1.59E2,2.8E1,8.2E1,6.8E1,1.3E2,5.5E1,1.25E2,2.96E2,1.9E2,1.14E2,2.15E2,2.52E2,1.98E2,2.66E2,1.36E2],"tree_param":{"num_deleted":"0","num_feature":"9","num_nodes":"127","size_leaf_vector":"1"}},{"base_weights":[2.3074271E-1,-8.919089E2,1.0628833E3,-4.9591374E0,-1.6722998E3,1.672449E3,1.4854978E1,-9.7194794E2,3.3230627E2,-2.2925168E3,-1.1588618E3,1.292906E3,2.5184968E3,-8.539096E2,3.8782632E2,-1.4136298E3,-2.4855528E2,-3.9278708E2,7.324787E2,-2.7484104E3,-1.7565323E3,-1.8856027E3,-6.9104504E2,8.098619E2,1.8780013E3,3.0871272E3,2.0354841E3,-1.2369591E3,-1.3844542E2,2.9401327E1,1.0213088E3,-8.118142E2,-1.7772422E3,5.8548425E2,-5.435589E2,1.2410556E2,-8.319506E2,-3.1067642E1,9.699084E2,-2.461471E3,-3.4273642E2,-1.3509642E3,-2.39905E3,-1.4290947E3,-2.4380583E3,-2.0130911E2,-1.2916969E3,1.604193E3,5.144457E2,2.355775E3,1.3676538E3,2.6099048E3,3.672159E3,2.655191E3,1.6918662E3,-1.0106078E3,-1.8587205E3,1.292182E2,-9.604233E2,3.1127347E2,-7.066805E2,6.2898737E2,1.5383044E3,-5.2850147E1,-1.4975458E2,-1.5534795E2,-2.4868912E2,1.24359795E2,1.4894277E1,-1.7391508E1,-1.0889654E2,-2.6971571E1,7.721714E1,-1.4949701E2,-5.778303E1,-5.04543E1,4.227749E1,1.3835509E2,-3.9121473E0,-3.21243E2,-2.190221E2,-2.0466148E2,-1.0961798E2,-3.1688412E2,-2.0927383E2,-2.2840633E2,-1.15765625E2,-1.7663329E2,-2.733839E2,3.9304955E1,-5.1152054E1,-6.1865E1,-1.5693791E2,8.055801E1,1.8526117E2,1.1829537E2,1.4915111E1,2.9917892E2,2.020435E2,6.561852E1,1.6367729E2,2.8746155E2,1.6812047E2,4.29846E2,3.2486176E2,2.8750085E2,1.7374225E2,1.0798727E2,2.0348695E2,-1.7535083E2,-5.9902718E1,-1.3299492E2,-2.1289326E2,-8.5687515E1,5.194705E1,-3.19551E1,-1.280898E2,-6.968807E1,8.005755E1,-1.7298582E1,-9.46499E1,1.2850398E2,2.910762E1,8.154386E1,1.7761998E2],"categories":[],"categories_nodes":[],"categories_segments":[],"categories_sizes":[],"default_left":[0,0,0,0,0,0,0,0,0,0,0,0,0,0,0,0,0,0,0,0,0,0,0,0,0,0,0,0,0,0,0,0,0,0,0,0,0,0,0,0,0,0,0,0,0,0,0,0,0,0,0,0,0,0,0,0,0,0,0,0,0,0,0,0,0,0,0,0,0,0,0,0,0,0,0,0,0,0,0,0,0,0,0,0,0,0,0,0,0,0,0,0,0,0,0,0,0,0,0,0,0,0,0,0,0,0,0,0,0,0,0,0,0,0,0,0,0,0,0,0,0,0,0,0,0],"id":6,"left_children":[1,3,5,7,9,11,13,15,17,19,21,23,25,27,29,31,33,35,37,39,41,43,45,47,49,51,53,55,57,59,61,63,65,67,69,71,73,75,77,79,-1,81,83,85,87,89,91,93,95,97,99,101,103,105,107,109,111,113,115,117,119,121,123,-1,-1,-1,-1,-1,-1,-1,-1,-1,-1,-1,-1,-1,-1,-1,-1,-1,-1,-1,-1,-1,-1,-1,-1,-1,-1,-1,-1,-1,-1,-1,-1,-1,-1,-1,-1,-1,-1,-1,-1,-1,-1,-1,-1,-1,-1,-1,-1,-1,-1,-1,-1,-1,-1,-1,-1,-1,-1,-1,-1,-1,-1],"loss_changes":[7.5861714E9,3.0109204E9,2.3330266E9,6.646536E8,7.342208E8,7.3819034E8,4.3581984E8,1.6803008E8,4.3872307E8,2.5100851E8,4.297938E8,4.4955136E8,1.8982042E8,1.1054826E8,2.1362958E8,7.011386E7,4.977323E7,1.2222946E8,1.7660522E8,1.0144128E8,1.2288205E8,1.2160717E8,2.271262E8,2.0473536E8,1.725801E8,8.143181E7,7.83424E7,3.5135264E7,3.1366032E7,1.251235E8,6.799414E7,2.3493112E7,2.8371584E7,1.5041354E7,2.9849932E7,6.350335E7,4.816581E7,5.0066216E7,3.1016563E8,7.444326E7,0E0,5.0751616E7,3.7226496E7,6.094336E7,3.9477376E7,7.892997E7,6.3881024E7,4.552608E7,1.561131E8,7.30825E7,6.613184E7,4.0155264E7,2.4234112E7,2.2643456E7,5.0911296E7,5.857349E7,7.027376E6,4.2006236E7,6.779104E6,2.1563318E8,2.1210576E7,4.2855E7,2.3658688E7,0E0,0E0,0E0,0E0,0E0,0E0,0E0,0E0,0E0,0E0,0E0,0E0,0E0,0E0,0E0,0E0,0E0,0E0,0E0,0E0,0E0,0E0,0E0,0E0,0E0,0E0,0E0,0E0,0E0,0E0,0E0,0E0,0E0,0E0,0E0,0E0,0E0,0E0,0E0,0E0,0E0,0E0,0E0,0E0,0E0,0E0,0E0,0E0,0E0,0E0,0E0,0E0,0E0,0E0,0E0,0E0,0E0,0E0,0E0,0E0,0E0,0E0],"parents":[2147483647,0,0,1,1,2,2,3,3,4,4,5,5,6,6,7,7,8,8,9,9,10,10,11,11,12,12,13,13,14,14,15,15,16,16,17,17,18,18,19,19,20,20,21,21,22,22,23,23,24,24,25,25,26,26,27,27,28,28,29,29,30,30,31,31,32,32,33,33,34,34,35,35,36,36,37,37,38,38,39,39,41,41,42,42,43,43,44,44,45,45,46,46,47,47,48,48,49,49,50,50,51,51,52,52,53,53,54,54,55,55,56,56,57,57,58,58,59,59,60,60,61,61,62,62],"right_children":[2,4,6,8,10,12,14,16,18,20,22,24,26,28,30,32,34,36,38,40,42,44,46,48,50,52,54,56,58,60,62,64,66,68,70,72,74,76,78,80,-1,82,84,86,88,90,92,94,96,98,100,102,104,106,108,110,112,114,116,118,120,122,124,-1,-1,-1,-1,-1,-1,-1,-1,-1,-1,-1,-1,-1,-1,-1,-1,-1,-1,-1,-1,-1,-1,-1,-1,-1,-1,-1,-1,-1,-1,-1,-1,-1,-1,-1,-1,-1,-1,-1,-1,-1,-1,-1,-1,-1,-1,-1,-1,-1,-1,-1,-1,-1,-1,-1,-1,-1,-1,-1,-1,-1,-1],"split_conditions":[2.013E3,1.40316E5,1.8824E5,2.1E0,2.8E0,3.8E0,2.3E0,2.008E3,2.005E3,2.007E3,2.005E3,2.019E3,8.8716E4,2.02E3,2.02E3,5.0573E4,1E0,6.2906E4,1E0,2.45164E5,2.42693E5,2.33511E5,2.27466E5,5.4454E4,9.3537E4,2.019E3,1E0,3E0,3E0,3E0,3.8E0,3E0,3E0,3.7724E4,7.5419E4,4E0,1E0,3.5E0,3E0,1E0,-3.4273642E2,1E0,1.5E0,1E0,1E0,1E0,1E0,1E0,1E0,1E0,1E0,3E0,1E0,3E0,2.017E3,1E0,2.35553E5,1E0,1E0,1E0,1E0,1E0,1E0,-5.2850147E1,-1.4975458E2,-1.5534795E2,-2.4868912E2,1.24359795E2,1.4894277E1,-1.7391508E1,-1.0889654E2,-2.6971571E1,7.721714E1,-1.4949701E2,-5.778303E1,-5.04543E1,4.227749E1,1.3835509E2,-3.9121473E0,-3.21243E2,-2.190221E2,-2.0466148E2,-1.0961798E2,-3.1688412E2,-2.0927383E2,-2.2840633E2,-1.15765625E2,-1.7663329E2,-2.733839E2,3.9304955E1,-5.1152054E1,-6.1865E1,-1.5693791E2,8.055801E1,1.8526117E2,1.1829537E2,1.4915111E1,2.9917892E2,2.020435E2,6.561852E1,1.6367729E2,2.8746155E2,1.6812047E2,4.29846E2,3.2486176E2,2.8750085E2,1.7374225E2,1.0798727E2,2.0348695E2,-1.7535083E2,-5.9902718E1,-1.3299492E2,-2.1289326E2,-8.5687515E1,5.194705E1,-3.19551E1,-1.280898E2,-6.968807E1,8.005755E1,-1.7298582E1,-9.46499E1,1.2850398E2,2.910762E1,8.154386E1,1.7761998E2],"split_indices":[2,6,6,3,3,3,3,2,2,2,2,2,6,2,2,6,5,6,4,6,6,6,6,6,6,2,5,4,4,4,3,4,4,6,6,3,4,3,4,4,0,4,3,4,5,5,5,4,5,5,4,4,5,4,2,4,6,4,5,4,5,5,4,0,0,0,0,0,0,0,0,0,0,0,0,0,0,0,0,0,0,0,0,0,0,0,0,0,0,0,0,0,0,0,0,0,0,0,0,0,0,0,0,0,0,0,0,0,0,0,0,0,0,0,0,0,0,0,0,0,0,0,0,0,0],"split_type":[0,0,0,0,0,0,0,0,0,0,0,0,0,0,0,0,0,0,0,0,0,0,0,0,0,0,0,0,0,0,0,0,0,0,0,0,0,0,0,0,0,0,0,0,0,0,0,0,0,0,0,0,0,0,0,0,0,0,0,0,0,0,0,0,0,0,0,0,0,0,0,0,0,0,0,0,0,0,0,0,0,0,0,0,0,0,0,0,0,0,0,0,0,0,0,0,0,0,0,0,0,0,0,0,0,0,0,0,0,0,0,0,0,0,0,0,0,0,0,0,0,0,0,0,0],"sum_hessian":[8E3,4.349E3,3.651E3,2.036E3,2.313E3,2.308E3,1.343E3,5.26E2,1.51E3,1.046E3,1.267E3,1.595E3,7.13E2,4.03E2,9.4E2,3.26E2,2E2,5.37E2,9.73E2,5.63E2,4.83E2,4.95E2,7.72E2,8.75E2,7.2E2,3.25E2,3.88E2,2.62E2,1.41E2,6.01E2,3.39E2,1.24E2,2.02E2,5.2E1,1.48E2,2.47E2,2.9E2,2.31E2,7.42E2,3.99E2,1.64E2,2.98E2,1.85E2,2.73E2,2.22E2,4.26E2,3.46E2,2.36E2,6.39E2,3.7E2,3.5E2,1.82E2,1.43E2,1.36E2,2.52E2,1.94E2,6.8E1,1.07E2,3.4E1,4.35E2,1.66E2,1.94E2,1.45E2,8.9E1,3.5E1,1.56E2,4.6E1,2E1,3.2E1,8.9E1,5.9E1,1.54E2,9.3E1,7.9E1,2.11E2,1.13E2,1.18E2,5.26E2,2.16E2,1.03E2,2.96E2,7.8E1,2.2E2,5E1,1.35E2,6.4E1,2.09E2,7E1,1.52E2,1.46E2,2.8E2,1.02E2,2.44E2,5.7E1,1.79E2,2.25E2,4.14E2,1.25E2,2.45E2,9.7E1,2.53E2,1.4E2,4.2E1,5.4E1,8.9E1,1.08E2,2.8E1,9.2E1,1.6E2,6.8E1,1.26E2,2.5E1,4.3E1,3E1,7.7E1,1.2E1,2.2E1,1.42E2,2.93E2,5.2E1,1.14E2,6.5E1,1.29E2,3.7E1,1.08E2],"tree_param":{"num_deleted":"0","num_feature":"9","num_nodes":"125","size_leaf_vector":"1"}},{"base_weights":[1.176986E-1,-1.056998E3,7.385953E2,-1.10213615E2,-1.6405464E3,1.5586102E3,7.7901794E1,-5.351386E2,5.5292847E2,-1.9870785E3,-8.901383E2,9.024392E2,2.0033729E3,-8.258636E2,4.544693E2,-1.2216711E3,-2.5094261E2,4.2272346E1,9.375933E2,-1.3659811E3,-2.2765312E3,-5.7723773E2,-1.7078198E3,3.2490854E2,1.456599E3,1.4140732E3,2.4875269E3,-1.2518602E3,-1.5713586E2,-8.4016846E1,9.6849E2,-1.8557185E3,-9.214176E2,4.0928763E2,-5.7945703E2,7.3904486E2,-2.991007E2,1.1838802E3,1.8181992E2,-2.0508806E3,-1.0611027E3,-2.0269503E3,-2.925708E3,-1.2751749E3,-2.9046088E2,-1.0956405E3,-1.9798395E3,-3.6720627E2,5.9196985E2,6.7049304E2,1.7149701E3,1.6332656E3,6.865336E2,3.028495E3,2.166438E3,-7.6228754E2,-1.6324294E3,1.5833064E2,-8.089988E2,2.4103055E2,-7.5255835E2,1.6268748E3,6.2609717E2,-1.16448265E2,-2.1839139E2,-7.034993E1,-1.568129E2,-4.712663E1,6.705303E1,-1.3052573E2,-3.696716E1,1.8499213E2,5.0057766E1,4.191474E1,-5.0993935E1,3.2929245E1,1.5056895E2,8.769478E1,-1.550501E1,-2.68524E2,-1.758593E2,-8.4597595E1,-2.0431267E2,-2.69001E2,-1.7340202E2,-2.703625E2,-3.450383E2,-6.496938E1,-1.5290245E2,-7.0101976E0,-9.751565E1,-1.492663E2,-6.3112934E1,-1.7170087E2,-2.5372346E2,2.125118E1,-5.7864544E1,1.022442E2,-3.42402E1,2.8841444E1,1.0269529E2,2.1913274E2,6.9148155E1,7.960719E1,2.0534532E2,2.3322971E1,1.143172E2,2.758964E2,3.7656165E2,1.4729208E2,2.405985E2,-3.3270931E0,-1.0596191E2,-1.018196E2,-1.858642E2,7.615234E1,-1.6486502E1,-2.1750269E1,-1.1198327E2,-2.7597194E0,8.784286E1,-9.911974E1,1.4197272E1,2.0061235E2,1.0866847E2,9.421932E1,1.033495E0],"categories":[],"categories_nodes":[],"categories_segments":[],"categories_sizes":[],"default_left":[0,0,0,0,0,0,0,0,0,0,0,0,0,0,0,0,0,0,0,0,0,0,0,0,0,0,0,0,0,0,0,0,0,0,0,0,0,0,0,0,0,0,0,0,0,0,0,0,0,0,0,0,0,0,0,0,0,0,0,0,0,0,0,0,0,0,0,0,0,0,0,0,0,0,0,0,0,0,0,0,0,0,0,0,0,0,0,0,0,0,0,0,0,0,0,0,0,0,0,0,0,0,0,0,0,0,0,0,0,0,0,0,0,0,0,0,0,0,0,0,0,0,0,0,0,0,0],"id":7,"left_children":[1,3,5,7,9,11,13,15,17,19,21,23,25,27,29,31,33,35,37,39,41,43,45,47,49,51,53,55,57,59,61,63,65,67,69,71,73,75,77,79,81,83,85,87,89,91,93,95,97,99,101,103,105,107,109,111,113,115,117,119,121,123,125,-1,-1,-1,-1,-1,-1,-1,-1,-1,-1,-1,-1,-1,-1,-1,-1,-1,-1,-1,-1,-1,-1,-1,-1,-1,-1,-1,-1,-1,-1,-1,-1,-1,-1,-1,-1,-1,-1,-1,-1,-1,-1,-1,-1,-1,-1,-1,-1,-1,-1,-1,-1,-1,-1,-1,-1,-1,-1,-1,-1,-1,-1,-1,-1],"loss_changes":[6.2468116E9,1.8180785E9,2.5521974E9,3.5421866E8,5.2767334E8,6.116408E8,8.886331E8,1.4914752E8,9.640821E7,2.4714189E8,1.6403936E8,2.718844E8,3.5369216E8,2.1858787E8,5.1021098E8,4.093408E7,1.1801122E8,5.064723E7,5.190312E7,9.074477E7,1.4766643E8,9.330086E7,2.7472256E7,7.747928E7,8.699859E7,8.929882E7,1.1259648E8,8.613798E7,6.182037E7,1.9597562E8,2.1155834E8,1.3563968E7,2.0600072E7,4.195292E7,5.478868E7,1.7617504E7,2.1868864E7,5.753219E7,1.6527712E7,2.0494208E7,6.3761984E7,1.2896589E8,2.1083648E7,2.0600432E7,5.017426E7,9.56996E6,1.3516608E7,1.4464259E7,1.21820856E8,1.454914E7,1.5742483E8,1.5138893E8,2.7263852E7,3.9876096E7,6.855654E7,4.4833976E7,3.465069E7,3.970026E7,1.7774416E7,1.0395647E8,6.3114384E7,6.378701E7,1.2105638E8,0E0,0E0,0E0,0E0,0E0,0E0,0E0,0E0,0E0,0E0,0E0,0E0,0E0,0E0,0E0,0E0,0E0,0E0,0E0,0E0,0E0,0E0,0E0,0E0,0E0,0E0,0E0,0E0,0E0,0E0,0E0,0E0,0E0,0E0,0E0,0E0,0E0,0E0,0E0,0E0,0E0,0E0,0E0,0E0,0E0,0E0,0E0,0E0,0E0,0E0,0E0,0E0,0E0,0E0,0E0,0E0,0E0,0E0,0E0,0E0,0E0,0E0,0E0,0E0],"parents":[2147483647,0,0,1,1,2,2,3,3,4,4,5,5,6,6,7,7,8,8,9,9,10,10,11,11,12,12,13,13,14,14,15,15,16,16,17,17,18,18,19,19,20,20,21,21,22,22,23,23,24,24,25,25,26,26,27,27,28,28,29,29,30,30,31,31,32,32,33,33,34,34,35,35,36,36,37,37,38,38,39,39,40,40,41,41,42,42,43,43,44,44,45,45,46,46,47,47,48,48,49,49,50,50,51,51,52,52,53,53,54,54,55,55,56,56,57,57,58,58,59,59,60,60,61,61,62,62],"right_children":[2,4,6,8,10,12,14,16,18,20,22,24,26,28,30,32,34,36,38,40,42,44,46,48,50,52,54,56,58,60,62,64,66,68,70,72,74,76,78,80,82,84,86,88,90,92,94,96,98,100,102,104,106,108,110,112,114,116,118,120,122,124,126,-1,-1,-1,-1,-1,-1,-1,-1,-1,-1,-1,-1,-1,-1,-1,-1,-1,-1,-1,-1,-1,-1,-1,-1,-1,-1,-1,-1,-1,-1,-1,-1,-1,-1,-1,-1,-1,-1,-1,-1,-1,-1,-1,-1,-1,-1,-1,-1,-1,-1,-1,-1,-1,-1,-1,-1,-1,-1,-1,-1,-1,-1,-1,-1],"split_conditions":[2.01E3,1.15661E5,1.32635E5,3.5E0,3.8E0,2.6E0,2.3E0,2.003E3,2.004E3,1E0,2.52417E5,2.017E3,2.016E3,2.018E3,2.017E3,1.8E0,1E0,1E0,3E0,1.9E0,2.47689E5,2.003E3,1E0,1E0,1E0,3E0,1E0,2.10734E5,2.48658E5,2.41336E5,1E0,1E0,3E0,1E0,1E0,1.7983E4,3.3006E4,1E0,3.6738E4,1E0,2.68057E5,2.003E3,3E0,1E0,3E0,2.005E3,3E0,1E0,3E0,2.02E3,3E0,1E0,3.8E0,4.4E0,1E0,1E0,1E0,1E0,1E0,4.3E0,4.5E0,2.22808E5,2.41336E5,-1.16448265E2,-2.1839139E2,-7.034993E1,-1.568129E2,-4.712663E1,6.705303E1,-1.3052573E2,-3.696716E1,1.8499213E2,5.0057766E1,4.191474E1,-5.0993935E1,3.2929245E1,1.5056895E2,8.769478E1,-1.550501E1,-2.68524E2,-1.758593E2,-8.4597595E1,-2.0431267E2,-2.69001E2,-1.7340202E2,-2.703625E2,-3.450383E2,-6.496938E1,-1.5290245E2,-7.0101976E0,-9.751565E1,-1.492663E2,-6.3112934E1,-1.7170087E2,-2.5372346E2,2.125118E1,-5.7864544E1,1.022442E2,-3.42402E1,2.8841444E1,1.0269529E2,2.1913274E2,6.9148155E1,7.960719E1,2.0534532E2,2.3322971E1,1.143172E2,2.758964E2,3.7656165E2,1.4729208E2,2.405985E2,-3.3270931E0,-1.0596191E2,-1.018196E2,-1.858642E2,7.615234E1,-1.6486502E1,-2.1750269E1,-1.1198327E2,-2.7597194E0,8.784286E1,-9.911974E1,1.4197272E1,2.0061235E2,1.0866847E2,9.421932E1,1.033495E0],"split_indices":[2,6,6,3,3,3,3,2,2,5,6,2,2,2,2,3,5,5,4,3,6,2,5,4,4,4,5,6,6,6,5,5,4,4,4,6,6,4,6,4,6,2,4,5,4,2,4,5,4,2,4,4,3,3,4,5,5,5,5,3,3,6,6,0,0,0,0,0,0,0,0,0,0,0,0,0,0,0,0,0,0,0,0,0,0,0,0,0,0,0,0,0,0,0,0,0,0,0,0,0,0,0,0,0,0,0,0,0,0,0,0,0,0,0,0,0,0,0,0,0,0,0,0,0,0,0,0],"split_type":[0,0,0,0,0,0,0,0,0,0,0,0,0,0,0,0,0,0,0,0,0,0,0,0,0,0,0,0,0,0,0,0,0,0,0,0,0,0,0,0,0,0,0,0,0,0,0,0,0,0,0,0,0,0,0,0,0,0,0,0,0,0,0,0,0,0,0,0,0,0,0,0,0,0,0,0,0,0,0,0,0,0,0,0,0,0,0,0,0,0,0,0,0,0,0,0,0,0,0,0,0,0,0,0,0,0,0,0,0,0,0,0,0,0,0,0,0,0,0,0,0,0,0,0,0,0,0],"sum_hessian":[8E3,3.29E3,4.71E3,1.255E3,2.035E3,2.101E3,2.609E3,7.65E2,4.9E2,1.391E3,6.44E2,8.5E2,1.251E3,7.67E2,1.842E3,2.23E2,5.42E2,2.11E2,2.79E2,4.44E2,9.47E2,4.67E2,1.77E2,4.17E2,4.33E2,5.66E2,6.85E2,4.68E2,2.99E2,9E2,9.42E2,7E1,1.53E2,1.8E2,3.62E2,6.9E1,1.42E2,2.1E2,6.9E1,1.35E2,3.09E2,6.87E2,2.6E2,1.35E2,3.32E2,5.6E1,1.21E2,1.16E2,3.01E2,1.08E2,3.25E2,4.34E2,1.32E2,2.52E2,4.33E2,2.06E2,2.62E2,2.02E2,9.7E1,6.06E2,2.94E2,3.21E2,6.21E2,2.4E1,4.6E1,1.16E2,3.7E1,4.1E1,1.39E2,8E1,2.82E2,1.1E1,5.8E1,3.2E1,1.1E2,5.8E1,1.52E2,2.2E1,4.7E1,4E1,9.5E1,2.55E2,5.4E1,2.08E2,4.79E2,1.87E2,7.3E1,4E1,9.5E1,2.52E2,8E1,2.9E1,2.7E1,8.5E1,3.6E1,3.1E1,8.5E1,2.06E2,9.5E1,5.3E1,5.5E1,2.21E2,1.04E2,1.46E2,2.88E2,6.7E1,6.5E1,1.88E2,6.4E1,1.13E2,3.2E2,6E1,1.46E2,7.2E1,1.9E2,7E1,1.32E2,3.4E1,6.3E1,4.27E2,1.79E2,2.32E2,6.2E1,1.87E2,1.34E2,4.1E2,2.11E2],"tree_param":{"num_deleted":"0","num_feature":"9","num_nodes":"127","size_leaf_vector":"1"}},{"base_weights":[-3.556245E-2,-6.729637E2,9.470034E2,-9.881337E1,-1.4853783E3,1.5489015E3,2.2989096E2,-7.557223E2,2.8169852E2,-1.9680912E3,-1.01100946E3,7.3560156E2,1.8484026E3,-2.004097E2,8.534561E2,-1.2078427E3,-1.4481021E2,-7.447569E1,8.7162384E2,-2.5395146E3,-1.615799E3,-1.5097021E3,-4.72139E2,1.3654526E3,3.8222723E2,1.5798785E3,2.4754924E3,-3.9981412E2,5.7662286E2,1.4630922E3,5.421275E2,-7.2793115E2,-1.597934E3,2.0475371E2,-7.337943E2,4.609553E2,-3.8826712E2,1.5358041E3,5.360112E2,-2.3388896E3,-3.0752292E2,-9.853076E2,-1.9084296E3,-9.119125E2,-1.7744915E3,-2.2542621E2,-1.2187854E3,1.0984865E3,2.1594307E3,9.2166223E2,9.090977E1,2.1593967E3,1.2544089E3,3.304922E3,2.2701252E3,1.9934532E2,-6.6076996E2,7.7831775E2,-1.4583292E2,1.2215953E3,2.3409417E3,-1.1713303E2,7.796738E2,-1.2977141E2,-4.99783E1,-9.615268E1,-1.9298727E2,8.134774E1,-4.6777134E0,-1.089788E1,-9.849569E1,-2.7424793E1,6.807383E1,-1.07053795E2,-1.710307E1,7.78631E1,1.7552126E2,1.0546088E2,2.6033209E1,-2.954614E2,-2.0180338E2,-6.871729E1,-1.6741301E2,-2.5549068E2,-1.6773418E2,-6.848022E1,-1.6110822E2,-2.2505284E2,-1.3821208E2,-1.1354994E2,2.5390894E1,-1.459482E2,-6.3667683E1,1.7389427E2,8.142658E1,2.4293216E2,1.0258593E2,2.4916252E1,1.1165249E2,-1.3637812E1,9.503753E1,2.7664108E2,1.8027547E2,1.4855263E2,5.1864105E1,3.5845154E2,2.3428355E2,1.6247539E2,2.4902144E2,4.8179703E1,-6.069095E1,-2.2892603E1,-9.537112E1,1.02387024E2,1.14284525E1,-6.751451E1,1.240315E1,1.4536577E2,4.5425766E1,2.4179764E2,4.821426E1,-4.4835922E1,3.8989624E1,1.637731E2,2.8214008E1],"categories":[],"categories_nodes":[],"categories_segments":[],"categories_sizes":[],"default_left":[0,0,0,0,0,0,0,0,0,0,0,0,0,0,0,0,0,0,0,0,0,0,0,0,0,0,0,0,0,0,0,0,0,0,0,0,0,0,0,0,0,0,0,0,0,0,0,0,0,0,0,0,0,0,0,0,0,0,0,0,0,0,0,0,0,0,0,0,0,0,0,0,0,0,0,0,0,0,0,0,0,0,0,0,0,0,0,0,0,0,0,0,0,0,0,0,0,0,0,0,0,0,0,0,0,0,0,0,0,0,0,0,0,0,0,0,0,0,0,0,0,0,0,0,0],"id":8,"left_children":[1,3,5,7,9,11,13,15,17,19,21,23,25,27,29,31,33,35,37,39,41,43,45,47,49,51,53,55,57,59,61,63,65,67,69,71,73,75,77,79,-1,81,83,85,87,89,91,93,95,97,99,101,103,105,107,109,111,113,115,117,119,121,123,-1,-1,-1,-1,-1,-1,-1,-1,-1,-1,-1,-1,-1,-1,-1,-1,-1,-1,-1,-1,-1,-1,-1,-1,-1,-1,-1,-1,-1,-1,-1,-1,-1,-1,-1,-1,-1,-1,-1,-1,-1,-1,-1,-1,-1,-1,-1,-1,-1,-1,-1,-1,-1,-1,-1,-1,-1,-1,-1,-1,-1,-1],"loss_changes":[5.0995876E9,2.1818972E9,1.4343775E9,6.8560774E8,4.4155187E8,4.387968E8,4.0748157E8,2.7768813E8,3.6503674E8,1.8895078E8,2.6237466E8,1.0809384E8,2.1836237E8,1.3952496E8,1.1688106E8,1.0704378E8,8.8476024E7,1.823058E8,1.4495818E8,3.1929344E7,1.080823E8,7.879232E7,8.667107E7,3.472179E7,4.9260324E7,1.7213798E8,5.961037E7,1.120813E8,2.6925184E7,4.144787E7,6.461255E7,3.3280112E7,6.5321216E7,4.13785E7,2.5001504E7,6.498233E7,1.0119536E8,3.501581E7,6.205885E7,4.718067E7,0E0,3.807368E7,5.636813E7,2.3985344E7,6.2450304E7,1.5558619E8,1.5463824E7,2.2794144E7,1.0663296E7,1.413676E7,4.0175556E7,6.68864E7,1.0057856E8,1.2045504E7,4.126464E7,4.993712E7,6.2907616E7,2.3362912E7,5.940282E6,2.8899328E7,5.134624E6,1.8648366E7,1.2889237E8,0E0,0E0,0E0,0E0,0E0,0E0,0E0,0E0,0E0,0E0,0E0,0E0,0E0,0E0,0E0,0E0,0E0,0E0,0E0,0E0,0E0,0E0,0E0,0E0,0E0,0E0,0E0,0E0,0E0,0E0,0E0,0E0,0E0,0E0,0E0,0E0,0E0,0E0,0E0,0E0,0E0,0E0,0E0,0E0,0E0,0E0,0E0,0E0,0E0,0E0,0E0,0E0,0E0,0E0,0E0,0E0,0E0,0E0,0E0,0E0,0E0,0E0],"parents":[2147483647,0,0,1,1,2,2,3,3,4,4,5,5,6,6,7,7,8,8,9,9,10,10,11,11,12,12,13,13,14,14,15,15,16,16,17,17,18,18,19,19,20,20,21,21,22,22,23,23,24,24,25,25,26,26,27,27,28,28,29,29,30,30,31,31,32,32,33,33,34,34,35,35,36,36,37,37,38,38,39,39,41,41,42,42,43,43,44,44,45,45,46,46,47,47,48,48,49,49,50,50,51,51,52,52,53,53,54,54,55,55,56,56,57,57,58,58,59,59,60,60,61,61,62,62],"right_children":[2,4,6,8,10,12,14,16,18,20,22,24,26,28,30,32,34,36,38,40,42,44,46,48,50,52,54,56,58,60,62,64,66,68,70,72,74,76,78,80,-1,82,84,86,88,90,92,94,96,98,100,102,104,106,108,110,112,114,116,118,120,122,124,-1,-1,-1,-1,-1,-1,-1,-1,-1,-1,-1,-1,-1,-1,-1,-1,-1,-1,-1,-1,-1,-1,-1,-1,-1,-1,-1,-1,-1,-1,-1,-1,-1,-1,-1,-1,-1,-1,-1,-1,-1,-1,-1,-1,-1,-1,-1,-1,-1,-1,-1,-1,-1,-1,-1,-1,-1,-1,-1,-1,-1,-1],"split_conditions":[2.014E3,1.77012E5,1.62038E5,2.5E0,2.007E3,2.1E0,3.5E0,2.008E3,2.009E3,2.6E0,3.1E0,5.2585E4,2.021E3,2.022E3,1E0,8.1786E4,1.07689E5,6.2906E4,5.9311E4,3E0,1E0,1E0,3E0,2.022E3,1E0,5.6708E4,3.3006E4,1E0,2.65161E5,2.022E3,1E0,2.002E3,1E0,1E0,1E0,1E0,1E0,1E0,1E0,1E0,-3.0752292E2,2.68057E5,1E0,3E0,1.9E0,1E0,4.5E0,1E0,3E0,1E0,2.022E3,1E0,3E0,3E0,1E0,3E0,2.19004E5,3E0,1.9E0,3E0,2.76281E5,2.02E3,2E0,-1.2977141E2,-4.99783E1,-9.615268E1,-1.9298727E2,8.134774E1,-4.6777134E0,-1.089788E1,-9.849569E1,-2.7424793E1,6.807383E1,-1.07053795E2,-1.710307E1,7.78631E1,1.7552126E2,1.0546088E2,2.6033209E1,-2.954614E2,-2.0180338E2,-6.871729E1,-1.6741301E2,-2.5549068E2,-1.6773418E2,-6.848022E1,-1.6110822E2,-2.2505284E2,-1.3821208E2,-1.1354994E2,2.5390894E1,-1.459482E2,-6.3667683E1,1.7389427E2,8.142658E1,2.4293216E2,1.0258593E2,2.4916252E1,1.1165249E2,-1.3637812E1,9.503753E1,2.7664108E2,1.8027547E2,1.4855263E2,5.1864105E1,3.5845154E2,2.3428355E2,1.6247539E2,2.4902144E2,4.8179703E1,-6.069095E1,-2.2892603E1,-9.537112E1,1.02387024E2,1.14284525E1,-6.751451E1,1.240315E1,1.4536577E2,4.5425766E1,2.4179764E2,4.821426E1,-4.4835922E1,3.8989624E1,1.637731E2,2.8214008E1],"split_indices":[2,6,6,3,2,3,3,2,2,3,3,6,2,2,5,6,6,6,6,4,5,5,4,2,5,6,6,5,6,2,4,2,5,5,5,4,4,4,5,4,0,6,4,4,3,4,3,5,4,4,2,5,4,4,4,4,6,4,3,4,6,2,4,0,0,0,0,0,0,0,0,0,0,0,0,0,0,0,0,0,0,0,0,0,0,0,0,0,0,0,0,0,0,0,0,0,0,0,0,0,0,0,0,0,0,0,0,0,0,0,0,0,0,0,0,0,0,0,0,0,0,0,0,0,0],"split_type":[0,0,0,0,0,0,0,0,0,0,0,0,0,0,0,0,0,0,0,0,0,0,0,0,0,0,0,0,0,0,0,0,0,0,0,0,0,0,0,0,0,0,0,0,0,0,0,0,0,0,0,0,0,0,0,0,0,0,0,0,0,0,0,0,0,0,0,0,0,0,0,0,0,0,0,0,0,0,0,0,0,0,0,0,0,0,0,0,0,0,0,0,0,0,0,0,0,0,0,0,0,0,0,0,0,0,0,0,0,0,0,0,0,0,0,0,0,0,0,0,0,0,0,0,0],"sum_hessian":[8E3,4.677E3,3.323E3,2.741E3,1.936E3,1.806E3,1.517E3,1.005E3,1.736E3,9.58E2,9.78E2,4.87E2,1.319E3,8.98E2,6.19E2,5.77E2,4.28E2,1.083E3,6.53E2,3.63E2,5.95E2,5.07E2,4.71E2,1.74E2,3.13E2,9.26E2,3.93E2,7.15E2,1.83E2,2.08E2,4.11E2,2.6E2,3.17E2,2.69E2,1.59E2,4E2,6.83E2,2.18E2,4.35E2,2.68E2,9.5E1,1.9E2,4.05E2,1.57E2,3.5E2,3.55E2,1.16E2,1.32E2,4.2E1,1.09E2,2.04E2,3.31E2,5.95E2,7.5E1,3.18E2,2.17E2,4.98E2,1.43E2,4E1,1.65E2,4.3E1,1.09E2,3.02E2,7.3E1,1.87E2,1.1E2,2.07E2,7.8E1,1.91E2,4.6E1,1.13E2,9.2E1,3.08E2,1.64E2,5.19E2,5E1,1.68E2,1.5E2,2.85E2,8.9E1,1.79E2,1.34E2,5.6E1,1.04E2,3.01E2,1.2E2,3.7E1,1.56E2,1.94E2,1.22E2,2.33E2,8.1E1,3.5E1,3.9E1,9.3E1,3.3E1,9E0,2.5E1,8.4E1,1.62E2,4.2E1,1.2E2,2.11E2,4.52E2,1.43E2,5.6E1,1.9E1,8.3E1,2.35E2,1.61E2,5.6E1,2.02E2,2.96E2,1.04E2,3.9E1,1.3E1,2.7E1,1.26E2,3.9E1,4.1E1,2E0,6.6E1,4.3E1,1.1E2,1.92E2],"tree_param":{"num_deleted":"0","num_feature":"9","num_nodes":"125","size_leaf_vector":"1"}},{"base_weights":[3.3009484E-2,-7.910839E2,6.575471E2,9.786016E0,-1.2847264E3,1.3902566E3,1.6900969E2,-2.9322046E2,7.145977E2,-1.5767267E3,-6.477701E2,9.8046454E2,1.960377E3,-4.3551028E2,5.205424E2,-9.391952E2,-5.6586628E1,3.3571095E1,1.0264191E3,-1.3516497E3,-2.2674768E3,-3.2726105E2,-1.2521311E3,6.2117E2,1.5441498E3,1.5649094E3,2.4220032E3,-8.783273E2,-2.8730623E1,2.302941E2,1.1684844E3,-1.5514879E3,-7.054479E2,5.19524E2,-3.475673E2,2.8301697E2,-5.685182E2,1.5220272E3,7.1716235E2,-2.1811162E3,-9.484027E2,-2.8152658E2,-2.0456642E3,-1.01131964E3,-7.4806366E1,-1.8070963E3,-1.0330874E3,1.232175E3,3.467599E2,1.8005955E3,8.346788E2,1.7831852E3,8.5454944E2,1.7390083E3,2.6509128E3,-1.4206979E3,-6.3810187E2,5.4347107E2,-3.2943866E2,4.5937683E2,-4.7071954E2,1.4647097E3,5.514461E2,-9.59867E1,-1.8331696E2,-5.12589E1,-1.3728415E2,7.270265E1,-2.224098E1,-1.2277469E1,-1.03832756E2,-5.3538605E1,6.563873E1,-1.5857798E1,-9.500326E1,7.417848E1,1.7454115E2,9.394427E1,-2.4969866E0,-1.9554948E2,-2.6422214E2,-4.5139416E1,-1.4715521E2,-1.7333223E2,-2.5184512E2,-7.404645E1,-1.6355032E2,-7.885811E1,1.1989646E1,-1.2942882E2,-2.0937328E2,-7.898322E1,-1.548932E2,1.4476442E2,4.9135124E1,5.4829517E1,-3.1064142E1,8.9796074E1,2.235736E2,4.3217342E1,1.2366244E2,1.00593414E2,2.180426E2,5.6342213E1,1.2085095E2,1.1647908E2,2.036079E2,3.0752133E2,1.796084E2,-8.583383E1,-1.6273027E2,2.4586342E1,-1.0979229E2,8.460934E1,-3.4284817E1,-1.238585E1,-9.8364555E1,-4.1123997E1,9.17675E1,-3.400156E1,-1.3871358E2,1.6957373E2,7.785317E1,-3.898734E-1,8.217812E1],"categories":[],"categories_nodes":[],"categories_segments":[],"categories_sizes":[],"default_left":[0,0,0,0,0,0,0,0,0,0,0,0,0,0,0,0,0,0,0,0,0,0,0,0,0,0,0,0,0,0,0,0,0,0,0,0,0,0,0,0,0,0,0,0,0,0,0,0,0,0,0,0,0,0,0,0,0,0,0,0,0,0,0,0,0,0,0,0,0,0,0,0,0,0,0,0,0,0,0,0,0,0,0,0,0,0,0,0,0,0,0,0,0,0,0,0,0,0,0,0,0,0,0,0,0,0,0,0,0,0,0,0,0,0,0,0,0,0,0,0,0,0,0,0,0],"id":9,"left_children":[1,3,5,7,9,11,13,15,17,19,21,23,25,27,29,31,33,35,37,39,41,43,45,47,49,51,53,55,57,59,61,63,65,67,69,71,73,75,77,79,81,-1,83,85,87,89,91,93,95,97,99,101,103,105,107,109,111,113,115,117,119,121,123,-1,-1,-1,-1,-1,-1,-1,-1,-1,-1,-1,-1,-1,-1,-1,-1,-1,-1,-1,-1,-1,-1,-1,-1,-1,-1,-1,-1,-1,-1,-1,-1,-1,-1,-1,-1,-1,-1,-1,-1,-1,-1,-1,-1,-1,-1,-1,-1,-1,-1,-1,-1,-1,-1,-1,-1,-1,-1,-1,-1,-1,-1],"loss_changes":[4.1624049E9,1.4358996E9,1.5640326E9,2.9620717E8,4.1690138E8,4.0646477E8,5.576366E8,1.4822051E8,8.85191E7,2.3636224E8,1.3673206E8,2.0541786E8,1.2947738E8,1.737992E8,3.1172915E8,3.6117184E7,1.19370504E8,1.9985808E7,4.2743744E7,3.872658E8,4.0048896E7,8.005427E7,2.7915712E7,1.041963E8,7.054566E7,5.987776E7,4.7765376E7,5.928797E7,8.690013E7,1.8441314E8,9.295968E7,1.0072464E7,2.3751728E7,3.695649E7,7.331892E7,2.9074756E7,5.948871E6,1.7703328E7,2.938656E7,3.436659E7,2.034434E8,0E0,3.5801344E7,1.9921888E7,4.7345692E7,7.285392E6,2.1112384E7,3.0096256E7,5.740581E7,1.1189645E8,1.6776584E7,9.105082E7,9.108608E6,1.246912E7,8.479002E7,1.4985472E7,1.3115193E8,4.6960344E7,4.4395E7,3.4551414E8,3.342588E7,5.352979E7,2.52249E7,0E0,0E0,0E0,0E0,0E0,0E0,0E0,0E0,0E0,0E0,0E0,0E0,0E0,0E0,0E0,0E0,0E0,0E0,0E0,0E0,0E0,0E0,0E0,0E0,0E0,0E0,0E0,0E0,0E0,0E0,0E0,0E0,0E0,0E0,0E0,0E0,0E0,0E0,0E0,0E0,0E0,0E0,0E0,0E0,0E0,0E0,0E0,0E0,0E0,0E0,0E0,0E0,0E0,0E0,0E0,0E0,0E0,0E0,0E0,0E0,0E0,0E0],"parents":[2147483647,0,0,1,1,2,2,3,3,4,4,5,5,6,6,7,7,8,8,9,9,10,10,11,11,12,12,13,13,14,14,15,15,16,16,17,17,18,18,19,19,20,20,21,21,22,22,23,23,24,24,25,25,26,26,27,27,28,28,29,29,30,30,31,31,32,32,33,33,34,34,35,35,36,36,37,37,38,38,39,39,40,40,42,42,43,43,44,44,45,45,46,46,47,47,48,48,49,49,50,50,51,51,52,52,53,53,54,54,55,55,56,56,57,57,58,58,59,59,60,60,61,61,62,62],"right_children":[2,4,6,8,10,12,14,16,18,20,22,24,26,28,30,32,34,36,38,40,42,44,46,48,50,52,54,56,58,60,62,64,66,68,70,72,74,76,78,80,82,-1,84,86,88,90,92,94,96,98,100,102,104,106,108,110,112,114,116,118,120,122,124,-1,-1,-1,-1,-1,-1,-1,-1,-1,-1,-1,-1,-1,-1,-1,-1,-1,-1,-1,-1,-1,-1,-1,-1,-1,-1,-1,-1,-1,-1,-1,-1,-1,-1,-1,-1,-1,-1,-1,-1,-1,-1,-1,-1,-1,-1,-1,-1,-1,-1,-1,-1,-1,-1,-1,-1,-1,-1,-1,-1,-1,-1],"split_conditions":[2.011E3,1.14651E5,1.19916E5,3.8E0,3.8E0,3.3E0,2.6E0,2.003E3,2.003E3,3E0,2.37737E5,2.019E3,2.018E3,2.017E3,2.02E3,1.8E0,1E0,3E0,1E0,1E0,2.003E3,2.003E3,2.003E3,1E0,3E0,3E0,1E0,1E0,1E0,3E0,2.35553E5,1E0,3E0,3E0,3E0,1E0,6.2906E4,1E0,3E0,2.35553E5,2E0,-2.8152658E2,2.25452E5,3E0,1E0,2.66558E5,3E0,3E0,3E0,1E0,2.1E0,1E0,4.2E0,2.02E3,3E0,1E0,2E0,3E0,3E0,1E0,2.77552E5,3E0,1E0,-9.59867E1,-1.8331696E2,-5.12589E1,-1.3728415E2,7.270265E1,-2.224098E1,-1.2277469E1,-1.03832756E2,-5.3538605E1,6.563873E1,-1.5857798E1,-9.500326E1,7.417848E1,1.7454115E2,9.394427E1,-2.4969866E0,-1.9554948E2,-2.6422214E2,-4.5139416E1,-1.4715521E2,-1.7333223E2,-2.5184512E2,-7.404645E1,-1.6355032E2,-7.885811E1,1.1989646E1,-1.2942882E2,-2.0937328E2,-7.898322E1,-1.548932E2,1.4476442E2,4.9135124E1,5.4829517E1,-3.1064142E1,8.9796074E1,2.235736E2,4.3217342E1,1.2366244E2,1.00593414E2,2.180426E2,5.6342213E1,1.2085095E2,1.1647908E2,2.036079E2,3.0752133E2,1.796084E2,-8.583383E1,-1.6273027E2,2.4586342E1,-1.0979229E2,8.460934E1,-3.4284817E1,-1.238585E1,-9.8364555E1,-4.1123997E1,9.17675E1,-3.400156E1,-1.3871358E2,1.6957373E2,7.785317E1,-3.898734E-1,8.217812E1],"split_indices":[2,6,6,3,3,3,3,2,2,4,6,2,2,2,2,3,5,4,5,4,2,2,2,5,4,4,4,4,5,4,6,5,4,4,4,4,6,4,4,6,4,0,6,4,4,6,4,4,4,4,3,4,3,2,4,5,4,4,4,4,6,4,4,0,0,0,0,0,0,0,0,0,0,0,0,0,0,0,0,0,0,0,0,0,0,0,0,0,0,0,0,0,0,0,0,0,0,0,0,0,0,0,0,0,0,0,0,0,0,0,0,0,0,0,0,0,0,0,0,0,0,0,0,0,0],"split_type":[0,0,0,0,0,0,0,0,0,0,0,0,0,0,0,0,0,0,0,0,0,0,0,0,0,0,0,0,0,0,0,0,0,0,0,0,0,0,0,0,0,0,0,0,0,0,0,0,0,0,0,0,0,0,0,0,0,0,0,0,0,0,0,0,0,0,0,0,0,0,0,0,0,0,0,0,0,0,0,0,0,0,0,0,0,0,0,0,0,0,0,0,0,0,0,0,0,0,0,0,0,0,0,0,0,0,0,0,0,0,0,0,0,0,0,0,0,0,0,0,0,0,0,0,0],"sum_hessian":[8E3,3.631E3,4.369E3,1.385E3,2.246E3,1.747E3,2.622E3,9.69E2,4.16E2,1.539E3,7.07E2,1.018E3,7.29E2,9.64E2,1.658E3,2.59E2,7.1E2,1.31E2,2.85E2,1.163E3,3.76E2,4.63E2,2.44E2,6.23E2,3.95E2,3.95E2,3.34E2,4.61E2,5.03E2,1.146E3,5.12E2,7E1,1.89E2,2.38E2,4.72E2,9.3E1,3.8E1,1.08E2,1.77E2,3.79E2,7.84E2,1.05E2,2.71E2,1.24E2,3.39E2,6.7E1,1.77E2,1.92E2,4.31E2,2.89E2,1.06E2,3.01E2,9.4E1,8.6E1,2.48E2,1.4E2,3.21E2,1.73E2,3.3E2,8.64E2,2.82E2,3.45E2,1.67E2,2.4E1,4.6E1,1.48E2,4.1E1,1.86E2,5.2E1,3.57E2,1.15E2,2.9E1,6.4E1,1.9E1,1.9E1,2.5E1,8.3E1,1.36E2,4.1E1,2.58E2,1.21E2,4.03E2,3.81E2,1.66E2,1.05E2,8.8E1,3.6E1,7.2E1,2.67E2,2.6E1,4.1E1,1.22E2,5.5E1,1.48E2,4.4E1,3.3E2,1.01E2,9.5E1,1.94E2,5.4E1,5.2E1,1.03E2,1.98E2,5.3E1,4.1E1,3.1E1,5.5E1,1.64E2,8.4E1,3.9E1,1.01E2,1.1E2,2.11E2,1.29E2,4.4E1,2.52E2,7.8E1,2.98E2,5.66E2,2.48E2,3.4E1,2.57E2,8.8E1,5.5E1,1.12E2],"tree_param":{"num_deleted":"0","num_feature":"9","num_nodes":"125","size_leaf_vector":"1"}},{"base_weights":[-5.9519477E-2,-8.529033E2,5.0330814E2,-3.6353848E2,-1.5049761E3,9.146122E2,-2.672351E2,-8.794335E2,8.08589E0,-2.2406025E3,-1.2827524E3,6.309942E2,1.532079E3,-7.445227E2,1.5157193E2,-6.607595E2,-1.5208507E3,5.217207E2,-2.5860635E2,-1.7869071E3,-2.441631E3,-1.6915414E3,-9.5201056E2,2.3711423E2,1.0777147E3,1.00831995E3,1.9000736E3,-1.1217517E3,-2.6043976E2,-1.2320132E2,7.970905E2,-1.472406E3,-2.415301E2,-1.055026E3,-1.8667262E3,7.5754803E2,-1.6736215E2,-9.222242E2,-5.1122726E1,-1.5455516E3,-2.2745813E2,-2.7336252E2,-2.2342397E3,-1.1629479E3,-1.9189756E3,-7.457011E2,-1.5420343E3,-3.799634E2,4.46683E2,4.27327E2,1.3090275E3,1.4121162E3,6.479191E2,2.2382607E3,1.5047804E3,-5.8973706E2,-1.3432462E3,-8.123544E2,-3.9092285E1,3.6675882E2,-3.4200903E2,1.0051468E3,1.1040663E2,-8.480519E1,-1.7382109E2,2.2467367E1,-7.30724E1,-4.601204E1,-1.235744E2,-2.1167545E2,-1.4591441E2,1.3103274E0,1.09118935E2,-5.3836586E1,3.4854458E1,-4.577032E1,-1.15910576E2,6.97396E1,-4.3203186E1,-2.0280212E2,-1.0871598E2,-1.8665466E2,-2.4605151E2,-1.4904167E2,-7.923977E1,-2.1206346E2,-1.4988211E2,-1.5560298E2,-3.7416912E1,-1.02630005E2,-1.7600784E2,1.0162452E1,-6.735308E1,1.258739E2,-1.6367687E-1,9.400989E1,1.602582E1,2.1269344E2,8.490976E1,1.8996617E2,1.1596891E2,5.6620946E0,8.8336555E1,2.442001E2,1.5754967E2,9.3785675E1,1.7246617E2,-3.7292236E1,-1.14478264E2,-1.1228308E2,-1.8474883E2,-2.4007748E1,-1.02280334E2,7.773449E1,-4.9625835E1,-8.677865E0,6.564059E1,-9.827109E1,-1.4882133E1,1.9130653E1,1.3588939E2,6.2343422E1,-1.1025207E1],"categories":[],"categories_nodes":[],"categories_segments":[],"categories_sizes":[],"default_left":[0,0,0,0,0,0,0,0,0,0,0,0,0,0,0,0,0,0,0,0,0,0,0,0,0,0,0,0,0,0,0,0,0,0,0,0,0,0,0,0,0,0,0,0,0,0,0,0,0,0,0,0,0,0,0,0,0,0,0,0,0,0,0,0,0,0,0,0,0,0,0,0,0,0,0,0,0,0,0,0,0,0,0,0,0,0,0,0,0,0,0,0,0,0,0,0,0,0,0,0,0,0,0,0,0,0,0,0,0,0,0,0,0,0,0,0,0,0,0,0,0,0,0],"id":10,"left_children":[1,3,5,7,9,11,13,15,17,19,21,23,25,27,29,31,33,35,37,39,41,43,45,47,49,51,53,55,57,59,61,63,65,67,69,71,73,75,77,79,-1,-1,81,83,85,87,89,91,93,95,97,99,101,103,105,107,109,111,113,115,117,119,121,-1,-1,-1,-1,-1,-1,-1,-1,-1,-1,-1,-1,-1,-1,-1,-1,-1,-1,-1,-1,-1,-1,-1,-1,-1,-1,-1,-1,-1,-1,-1,-1,-1,-1,-1,-1,-1,-1,-1,-1,-1,-1,-1,-1,-1,-1,-1,-1,-1,-1,-1,-1,-1,-1,-1,-1,-1,-1,-1,-1],"loss_changes":[3.4352102E9,9.471844E8,1.5950237E9,3.2554624E8,2.0522778E8,5.736174E8,3.503226E8,9.872077E7,1.3547357E8,2.2451584E7,1.3088922E8,3.9564154E8,1.9699251E8,1.492655E8,1.6576294E8,1.8066592E8,2.703168E7,5.5053336E7,8.958894E7,7.548576E6,6.064512E6,5.030451E7,6.5069856E7,1.5496602E8,1.5800768E8,6.1371264E7,7.751014E7,5.3413504E7,4.394761E7,7.045327E7,3.974944E7,2.8564032E7,8.044271E7,7.92472E6,7.30592E6,6.2576864E7,1.683973E7,1.652512E7,1.4200475E8,1.2391776E7,0E0,0E0,5.640896E6,1.5079056E7,2.2578816E7,1.2134829E8,1.3936992E7,4.3047516E7,3.254724E8,3.792016E7,2.9048563E8,2.2534016E7,3.1691928E7,3.990272E7,3.3535488E7,1.6059944E7,3.393587E7,1.2159264E7,9.6683576E7,2.6724222E7,5.604793E7,6.1349264E7,7.540199E6,0E0,0E0,0E0,0E0,0E0,0E0,0E0,0E0,0E0,0E0,0E0,0E0,0E0,0E0,0E0,0E0,0E0,0E0,0E0,0E0,0E0,0E0,0E0,0E0,0E0,0E0,0E0,0E0,0E0,0E0,0E0,0E0,0E0,0E0,0E0,0E0,0E0,0E0,0E0,0E0,0E0,0E0,0E0,0E0,0E0,0E0,0E0,0E0,0E0,0E0,0E0,0E0,0E0,0E0,0E0,0E0,0E0,0E0,0E0,0E0],"parents":[2147483647,0,0,1,1,2,2,3,3,4,4,5,5,6,6,7,7,8,8,9,9,10,10,11,11,12,12,13,13,14,14,15,15,16,16,17,17,18,18,19,19,20,20,21,21,22,22,23,23,24,24,25,25,26,26,27,27,28,28,29,29,30,30,31,31,32,32,33,33,34,34,35,35,36,36,37,37,38,38,39,39,42,42,43,43,44,44,45,45,46,46,47,47,48,48,49,49,50,50,51,51,52,52,53,53,54,54,55,55,56,56,57,57,58,58,59,59,60,60,61,61,62,62],"right_children":[2,4,6,8,10,12,14,16,18,20,22,24,26,28,30,32,34,36,38,40,42,44,46,48,50,52,54,56,58,60,62,64,66,68,70,72,74,76,78,80,-1,-1,82,84,86,88,90,92,94,96,98,100,102,104,106,108,110,112,114,116,118,120,122,-1,-1,-1,-1,-1,-1,-1,-1,-1,-1,-1,-1,-1,-1,-1,-1,-1,-1,-1,-1,-1,-1,-1,-1,-1,-1,-1,-1,-1,-1,-1,-1,-1,-1,-1,-1,-1,-1,-1,-1,-1,-1,-1,-1,-1,-1,-1,-1,-1,-1,-1,-1,-1,-1,-1,-1,-1,-1,-1,-1],"split_conditions":[2.009E3,1.73615E5,1.93635E5,2.7E0,2E0,3.8E0,2.016E3,3E0,1E0,1E0,2.004E3,2.017E3,2.015E3,3.2E0,3.8E0,1E0,7.9509E4,3E0,1E0,3E0,2.004E3,1E0,3E0,1E0,1E0,9.7089E4,1.05427E5,1E0,1E0,1E0,3E0,4.9268E4,2E0,1E0,1.9E0,1E0,4.1E0,6.0434E4,2E0,1E0,-2.2745813E2,-2.7336252E2,2.22808E5,3.6E0,3.9E0,1E0,1E0,7.4195E4,2E0,6.1794E4,2E0,1E0,1E0,3E0,1E0,3E0,2.70817E5,1E0,2E0,2.2E0,1E0,1E0,1E0,-8.480519E1,-1.7382109E2,2.2467367E1,-7.30724E1,-4.601204E1,-1.235744E2,-2.1167545E2,-1.4591441E2,1.3103274E0,1.09118935E2,-5.3836586E1,3.4854458E1,-4.577032E1,-1.15910576E2,6.97396E1,-4.3203186E1,-2.0280212E2,-1.0871598E2,-1.8665466E2,-2.4605151E2,-1.4904167E2,-7.923977E1,-2.1206346E2,-1.4988211E2,-1.5560298E2,-3.7416912E1,-1.02630005E2,-1.7600784E2,1.0162452E1,-6.735308E1,1.258739E2,-1.6367687E-1,9.400989E1,1.602582E1,2.1269344E2,8.490976E1,1.8996617E2,1.1596891E2,5.6620946E0,8.8336555E1,2.442001E2,1.5754967E2,9.3785675E1,1.7246617E2,-3.7292236E1,-1.14478264E2,-1.1228308E2,-1.8474883E2,-2.4007748E1,-1.02280334E2,7.773449E1,-4.9625835E1,-8.677865E0,6.564059E1,-9.827109E1,-1.4882133E1,1.9130653E1,1.3588939E2,6.2343422E1,-1.1025207E1],"split_indices":[2,6,6,3,3,3,2,4,5,5,2,2,2,3,3,4,6,4,4,4,2,5,4,4,4,6,6,5,4,5,4,6,4,5,3,4,3,6,4,4,0,0,6,3,3,4,5,6,4,6,4,5,4,4,4,4,6,5,4,3,4,4,5,0,0,0,0,0,0,0,0,0,0,0,0,0,0,0,0,0,0,0,0,0,0,0,0,0,0,0,0,0,0,0,0,0,0,0,0,0,0,0,0,0,0,0,0,0,0,0,0,0,0,0,0,0,0,0,0,0,0,0,0],"split_type":[0,0,0,0,0,0,0,0,0,0,0,0,0,0,0,0,0,0,0,0,0,0,0,0,0,0,0,0,0,0,0,0,0,0,0,0,0,0,0,0,0,0,0,0,0,0,0,0,0,0,0,0,0,0,0,0,0,0,0,0,0,0,0,0,0,0,0,0,0,0,0,0,0,0,0,0,0,0,0,0,0,0,0,0,0,0,0,0,0,0,0,0,0,0,0,0,0,0,0,0,0,0,0,0,0,0,0,0,0,0,0,0,0,0,0,0,0,0,0,0,0,0,0],"sum_hessian":[8E3,2.969E3,5.031E3,1.697E3,1.272E3,3.28E3,1.751E3,7.1E2,9.87E2,2.93E2,9.79E2,2.249E3,1.031E3,8.18E2,9.33E2,5.31E2,1.79E2,3.37E2,6.5E2,9.3E1,2E2,4.36E2,5.43E2,1.196E3,1.053E3,4.27E2,6.04E2,4.59E2,3.59E2,6.55E2,2.78E2,1.8E2,3.51E2,7.8E1,1.01E2,2.51E2,8.6E1,1.54E2,4.96E2,6.5E1,2.8E1,7.8E1,1.22E2,1.33E2,3.03E2,4.04E2,1.39E2,3.03E2,8.93E2,2.77E2,7.76E2,2E2,2.27E2,3.23E2,2.81E2,1.36E2,3.23E2,1.02E2,2.57E2,2.02E2,4.53E2,2.13E2,6.5E1,5.5E1,1.25E2,1.8E2,1.71E2,1.9E1,5.9E1,6E1,4.1E1,7.8E1,1.73E2,5E1,3.6E1,5.3E1,1.01E2,1.67E2,3.29E2,3E1,3.5E1,5E1,7.2E1,6.9E1,6.4E1,2.02E2,1.01E2,1.26E2,2.78E2,4.3E1,9.6E1,1.15E2,1.88E2,3.17E2,5.76E2,9.4E1,1.83E2,2.78E2,4.98E2,6.6E1,1.34E2,6.5E1,1.62E2,2.45E2,7.8E1,8E1,2.01E2,9.9E1,3.7E1,2.27E2,9.6E1,2.8E1,7.4E1,9.2E1,1.65E2,7.9E1,1.23E2,1.04E2,3.49E2,6.5E1,1.48E2,1.9E1,4.6E1],"tree_param":{"num_deleted":"0","num_feature":"9","num_nodes":"123","size_leaf_vector":"1"}},{"base_weights":[-3.084953E-1,-4.9939365E2,7.020744E2,-1.0651893E2,-1.1768518E3,1.2675046E3,2.5688794E2,-7.783043E2,1.386034E2,-1.6080978E3,-8.555039E2,6.2548846E2,1.5217539E3,-5.5434914E0,8.972115E2,-3.3687643E2,-1.1586976E3,-3.8496738E2,4.0795947E2,-1.8827919E3,-1.1605183E3,-1.5321057E3,-6.4055707E2,4.3149442E2,1.2874949E3,2.0255487E3,1.2438341E3,-2.3792978E2,5.150609E2,1.2224459E3,4.2075235E2,-9.934661E2,-1.3615704E2,-1.70225E3,-8.9422217E2,2.833824E2,-5.809355E2,9.1051636E2,1.764603E2,-2.22993E3,-1.6773732E3,-1.8571559E3,-9.670104E2,-1.0096062E3,-1.7820765E3,-1.3603714E2,-8.835745E2,9.32182E2,1.9392426E2,1.723844E3,9.323502E2,1.8141625E3,2.7154585E3,9.6860266E2,1.6798605E3,-2.3668325E1,-7.915557E2,7.2879456E2,-1.4182036E2,1.0158573E3,1.886512E3,1.01472455E3,1.6128856E2,-1.17748375E2,-3.6781727E1,6.584792E1,-5.541044E1,-1.5021231E2,-2.2482774E2,-3.250773E1,-1.1230707E2,1.2269994E1,1.4662976E2,-1.3293564E1,-8.129223E1,1.08456474E2,2.4504467E1,6.40888E1,-7.7937975E0,-2.5462386E2,-2.0783997E2,-1.287332E2,-1.9522693E2,-2.0399419E2,-1.1728021E2,-1.5947443E1,-1.3456566E2,-7.804433E1,-1.5022528E2,-1.5555737E2,-2.3960217E2,8.874972E0,-6.6688774E1,-6.6126785E1,-1.3390007E2,1.5670914E2,6.891996E1,8.084542E1,2.7770927E0,1.9190868E2,8.164153E1,1.0791392E2,5.162802E1,1.558939E2,2.4123936E2,3.2492294E2,2.4251659E2,1.4530104E2,7.141139E1,1.16357254E2,1.8629839E2,-5.980842E1,1.7683939E1,-3.6106636E1,-9.655621E1,6.798793E-1,1.1298689E2,-9.145846E1,-6.9550335E-1,4.9043606E1,1.2047378E2,2.1043672E2,1.18219154E2,1.3235107E2,5.082446E1,-1.4541007E1,5.1686348E1],"categories":[],"categories_nodes":[],"categories_segments":[],"categories_sizes":[],"default_left":[0,0,0,0,0,0,0,0,0,0,0,0,0,0,0,0,0,0,0,0,0,0,0,0,0,0,0,0,0,0,0,0,0,0,0,0,0,0,0,0,0,0,0,0,0,0,0,0,0,0,0,0,0,0,0,0,0,0,0,0,0,0,0,0,0,0,0,0,0,0,0,0,0,0,0,0,0,0,0,0,0,0,0,0,0,0,0,0,0,0,0,0,0,0,0,0,0,0,0,0,0,0,0,0,0,0,0,0,0,0,0,0,0,0,0,0,0,0,0,0,0,0,0,0,0,0,0],"id":11,"left_children":[1,3,5,7,9,11,13,15,17,19,21,23,25,27,29,31,33,35,37,39,41,43,45,47,49,51,53,55,57,59,61,63,65,67,69,71,73,75,77,79,81,83,85,87,89,91,93,95,97,99,101,103,105,107,109,111,113,115,117,119,121,123,125,-1,-1,-1,-1,-1,-1,-1,-1,-1,-1,-1,-1,-1,-1,-1,-1,-1,-1,-1,-1,-1,-1,-1,-1,-1,-1,-1,-1,-1,-1,-1,-1,-1,-1,-1,-1,-1,-1,-1,-1,-1,-1,-1,-1,-1,-1,-1,-1,-1,-1,-1,-1,-1,-1,-1,-1,-1,-1,-1,-1,-1,-1,-1,-1],"loss_changes":[2.805092E9,1.2449531E9,8.363981E8,4.8785917E8,2.3656627E8,2.3801984E8,3.1272934E8,1.3259936E8,3.063266E8,8.781248E7,1.4241594E8,5.2997824E7,1.4421555E8,1.5993886E8,8.331952E7,4.836356E7,5.957421E7,9.682435E7,1.6667307E8,2.8491136E7,3.608429E7,2.9155264E7,9.183517E7,3.8358516E7,1.2959664E7,4.917952E7,7.973837E7,1.0840059E8,5.7385576E7,4.212109E7,3.389559E7,9.468112E6,9.435371E7,1.170272E7,3.7146336E7,3.1752472E7,5.9236016E7,5.2086784E7,1.16191016E8,2.616384E6,2.8366336E7,5.11296E6,6.766643E7,7.746392E6,1.838336E7,2.92946E7,5.034413E7,1.4964232E7,2.254302E7,5.697168E6,2.740888E6,4.00592E7,5.290816E6,5.049184E7,2.2508352E7,7.612114E7,1.875288E7,8.918112E7,1.0519767E7,2.3921872E7,9.020224E6,9.805736E6,1.697858E7,0E0,0E0,0E0,0E0,0E0,0E0,0E0,0E0,0E0,0E0,0E0,0E0,0E0,0E0,0E0,0E0,0E0,0E0,0E0,0E0,0E0,0E0,0E0,0E0,0E0,0E0,0E0,0E0,0E0,0E0,0E0,0E0,0E0,0E0,0E0,0E0,0E0,0E0,0E0,0E0,0E0,0E0,0E0,0E0,0E0,0E0,0E0,0E0,0E0,0E0,0E0,0E0,0E0,0E0,0E0,0E0,0E0,0E0,0E0,0E0,0E0,0E0,0E0,0E0],"parents":[2147483647,0,0,1,1,2,2,3,3,4,4,5,5,6,6,7,7,8,8,9,9,10,10,11,11,12,12,13,13,14,14,15,15,16,16,17,17,18,18,19,19,20,20,21,21,22,22,23,23,24,24,25,25,26,26,27,27,28,28,29,29,30,30,31,31,32,32,33,33,34,34,35,35,36,36,37,37,38,38,39,39,40,40,41,41,42,42,43,43,44,44,45,45,46,46,47,47,48,48,49,49,50,50,51,51,52,52,53,53,54,54,55,55,56,56,57,57,58,58,59,59,60,60,61,61,62,62],"right_children":[2,4,6,8,10,12,14,16,18,20,22,24,26,28,30,32,34,36,38,40,42,44,46,48,50,52,54,56,58,60,62,64,66,68,70,72,74,76,78,80,82,84,86,88,90,92,94,96,98,100,102,104,106,108,110,112,114,116,118,120,122,124,126,-1,-1,-1,-1,-1,-1,-1,-1,-1,-1,-1,-1,-1,-1,-1,-1,-1,-1,-1,-1,-1,-1,-1,-1,-1,-1,-1,-1,-1,-1,-1,-1,-1,-1,-1,-1,-1,-1,-1,-1,-1,-1,-1,-1,-1,-1,-1,-1,-1,-1,-1,-1,-1,-1,-1,-1,-1,-1,-1,-1,-1,-1,-1,-1],"split_conditions":[2.014E3,1.90357E5,1.30573E5,2.1E0,2.006E3,2.1E0,3.9E0,8.5335E4,2.005E3,3.5E0,1.9E0,2.022E3,1E0,2.021E3,2.30974E5,1E0,2.004E3,3.8814E4,5.9311E4,2E0,1E0,1E0,1E0,1E0,4.9268E4,4.4E0,2.02E3,2.52417E5,3E0,2.022E3,1E0,1.8E0,2E0,3E0,1E0,4.6E0,1E0,3E0,1E0,2.002E3,2.35553E5,4.7E0,2E0,3E0,3E0,2.71834E5,2.61403E5,3.6738E4,2.5189E4,3E0,3E0,2.021E3,2.8687E4,4.5081E4,1E0,1E0,1E0,1E0,1.5E0,1E0,3E0,2E0,2.019E3,-1.17748375E2,-3.6781727E1,6.584792E1,-5.541044E1,-1.5021231E2,-2.2482774E2,-3.250773E1,-1.1230707E2,1.2269994E1,1.4662976E2,-1.3293564E1,-8.129223E1,1.08456474E2,2.4504467E1,6.40888E1,-7.7937975E0,-2.5462386E2,-2.0783997E2,-1.287332E2,-1.9522693E2,-2.0399419E2,-1.1728021E2,-1.5947443E1,-1.3456566E2,-7.804433E1,-1.5022528E2,-1.5555737E2,-2.3960217E2,8.874972E0,-6.6688774E1,-6.6126785E1,-1.3390007E2,1.5670914E2,6.891996E1,8.084542E1,2.7770927E0,1.9190868E2,8.164153E1,1.0791392E2,5.162802E1,1.558939E2,2.4123936E2,3.2492294E2,2.4251659E2,1.4530104E2,7.141139E1,1.16357254E2,1.8629839E2,-5.980842E1,1.7683939E1,-3.6106636E1,-9.655621E1,6.798793E-1,1.1298689E2,-9.145846E1,-6.9550335E-1,4.9043606E1,1.2047378E2,2.1043672E2,1.18219154E2,1.3235107E2,5.082446E1,-1.4541007E1,5.1686348E1],"split_indices":[2,6,6,3,2,3,3,6,2,3,3,2,5,2,6,4,2,6,6,3,4,5,5,5,6,3,2,6,4,2,5,3,4,4,5,3,5,4,5,2,6,3,4,4,4,6,6,6,6,4,4,2,6,6,4,4,5,4,3,4,4,4,2,0,0,0,0,0,0,0,0,0,0,0,0,0,0,0,0,0,0,0,0,0,0,0,0,0,0,0,0,0,0,0,0,0,0,0,0,0,0,0,0,0,0,0,0,0,0,0,0,0,0,0,0,0,0,0,0,0,0,0,0,0,0,0,0],"split_type":[0,0,0,0,0,0,0,0,0,0,0,0,0,0,0,0,0,0,0,0,0,0,0,0,0,0,0,0,0,0,0,0,0,0,0,0,0,0,0,0,0,0,0,0,0,0,0,0,0,0,0,0,0,0,0,0,0,0,0,0,0,0,0,0,0,0,0,0,0,0,0,0,0,0,0,0,0,0,0,0,0,0,0,0,0,0,0,0,0,0,0,0,0,0,0,0,0,0,0,0,0,0,0,0,0,0,0,0,0,0,0,0,0,0,0,0,0,0,0,0,0,0,0,0,0,0,0],"sum_hessian":[8E3,4.677E3,3.323E3,2.961E3,1.716E3,1.463E3,1.86E3,7.91E2,2.17E3,7.31E2,9.85E2,4.16E2,1.047E3,1.32E3,5.4E2,3.67E2,4.24E2,7.37E2,1.433E3,4.51E2,2.8E2,2.36E2,7.49E2,3.23E2,9.3E1,3.7E2,6.77E2,9.13E2,4.07E2,3.2E2,2.2E2,8.5E1,2.82E2,1.37E2,2.87E2,1.67E2,5.7E2,4.51E2,9.82E2,1.64E2,2.87E2,5.9E1,2.21E2,7.8E1,1.58E2,2.44E2,5.05E2,1.03E2,2.2E2,4E1,5.3E1,2.86E2,8.4E1,4.17E2,2.6E2,6.59E2,2.54E2,3.07E2,1E2,2.46E2,7.4E1,6.6E1,1.54E2,6.5E1,2E1,9.7E1,1.85E2,1.03E2,3.4E1,8.3E1,2.04E2,1.48E2,1.9E1,1.95E2,3.75E2,3.57E2,9.4E1,3.47E2,6.35E2,4.8E1,1.16E2,1.21E2,1.66E2,4.5E1,1.4E1,7.1E1,1.5E2,5.5E1,2.3E1,1.18E2,4E1,1.72E2,7.2E1,3.41E2,1.64E2,2.7E1,7.6E1,4.6E1,1.74E2,3.2E1,8E0,3.8E1,1.5E1,2.03E2,8.3E1,2.6E1,5.8E1,1.42E2,2.75E2,7E1,1.9E2,1.7E2,4.89E2,7.4E1,1.8E2,1.1E2,1.97E2,1.4E1,8.6E1,6.6E1,1.8E2,5.5E1,1.9E1,4E1,2.6E1,8.3E1,7.1E1],"tree_param":{"num_deleted":"0","num_feature":"9","num_nodes":"127","size_leaf_vector":"1"}},{"base_weights":[-2.474006E-1,-7.0295465E2,4.1450632E2,-2.8340152E2,-1.2068925E3,7.5289746E2,-2.1944107E2,-6.2606226E2,1.5323994E2,-1.8093478E3,-1.02388824E3,1.5729202E2,9.6241113E2,-5.1098123E2,2.3001782E2,-4.2831372E2,-1.1817805E3,6.420253E2,-8.638048E1,-1.4106879E3,-1.9953792E3,-8.368414E2,-1.5601776E3,7.800305E2,-6.501138E1,6.767394E2,1.3922855E3,-7.984694E2,-3.817558E1,-3.1924933E2,4.4089813E2,-1.1485748E3,-7.0432495E1,-8.233791E2,-1.5158066E3,1.3370735E3,4.322746E2,-6.820736E2,1.0102688E2,-1.1621565E3,-1.8409503E3,-2.3518729E2,-1.8577834E3,-1.5689597E3,-5.0298575E2,-1.1098976E3,-1.7434873E3,1.3821681E3,5.1042844E2,4.237922E2,-2.8622815E2,1.1399414E3,4.313484E2,8.253131E2,1.6015227E3,-1.3084875E3,-6.1212854E2,4.5050507E2,-2.8056458E2,-1.1962646E2,-8.688022E2,6.5317804E2,-1.5425269E2,-7.201807E1,-1.4173257E2,3.2846554E1,-5.00256E1,-3.5659817E1,-1.01826614E2,-1.02725075E2,-1.6854146E2,4.6932983E1,1.5481398E2,6.2576912E1,-1.05695505E1,-8.838797E1,-3.1027067E1,7.909518E1,-2.3456831E1,-1.4088695E2,-8.7400604E1,-2.1839441E2,-1.5234113E2,-1.168609E2,-2.1689061E2,-1.08279495E2,-1.7616423E2,-1.2212114E1,-9.178573E1,-1.3558601E2,-7.372466E1,-1.9023283E2,-1.2794961E2,1.5508228E2,6.7162315E1,3.2375553E1,1.2587197E2,2.1007635E1,9.581469E1,-1.0194581E1,-8.432503E1,1.790201E2,9.120859E1,9.883021E1,2.45355E1,6.08037E1,1.3328522E2,2.3166417E2,1.201937E2,-1.08104065E2,-1.6711864E2,1.705111E1,-9.931996E1,7.215123E1,-2.043997E1,-7.404818E1,-6.5248666E0,-6.678648E1,5.9151034E0,-9.741087E1,-1.8101618E1,-7.442923E0,9.926382E1,-3.6432507E1,2.5998331E1],"categories":[],"categories_nodes":[],"categories_segments":[],"categories_sizes":[],"default_left":[0,0,0,0,0,0,0,0,0,0,0,0,0,0,0,0,0,0,0,0,0,0,0,0,0,0,0,0,0,0,0,0,0,0,0,0,0,0,0,0,0,0,0,0,0,0,0,0,0,0,0,0,0,0,0,0,0,0,0,0,0,0,0,0,0,0,0,0,0,0,0,0,0,0,0,0,0,0,0,0,0,0,0,0,0,0,0,0,0,0,0,0,0,0,0,0,0,0,0,0,0,0,0,0,0,0,0,0,0,0,0,0,0,0,0,0,0,0,0,0,0,0,0,0,0],"id":12,"left_children":[1,3,5,7,9,11,13,15,17,19,21,23,25,27,29,31,33,35,37,39,41,43,45,47,49,51,53,55,57,59,61,63,65,67,69,71,73,75,77,79,81,-1,83,85,87,89,91,93,95,97,99,101,103,105,107,109,111,113,115,117,119,121,123,-1,-1,-1,-1,-1,-1,-1,-1,-1,-1,-1,-1,-1,-1,-1,-1,-1,-1,-1,-1,-1,-1,-1,-1,-1,-1,-1,-1,-1,-1,-1,-1,-1,-1,-1,-1,-1,-1,-1,-1,-1,-1,-1,-1,-1,-1,-1,-1,-1,-1,-1,-1,-1,-1,-1,-1,-1,-1,-1,-1,-1,-1],"loss_changes":[2.3321864E9,6.276013E8,1.0796408E9,2.4277941E8,1.4687718E8,4.092763E8,2.2969144E8,9.938608E7,8.368125E7,2.0398272E7,1.0271706E8,1.1841425E8,2.971008E8,1.4445888E8,8.00632E7,1.7313914E8,2.7244192E7,3.368192E7,5.36548E7,8.874688E6,5.980608E6,1.8766003E8,2.0103296E7,3.582045E7,6.835231E7,1.6546003E8,1.1351373E8,6.2018656E7,4.7862076E7,2.0959104E7,6.3143704E7,2.4653536E7,7.73194E7,1.028032E7,8.37792E6,9.163592E6,1.9011292E7,8.354452E6,8.49275E7,3.602784E6,5.93872E5,0E0,3.1129024E7,2.0668288E7,8.379115E7,6.333056E6,1.142176E7,7.227176E6,2.152314E7,2.2296124E7,4.45665E7,7.319066E7,9.878928E7,2.8192208E7,1.989559E8,1.2712448E7,1.4511461E8,2.3930322E7,2.6689108E7,1.3957306E7,3.517516E6,9.096754E7,1.1581296E7,0E0,0E0,0E0,0E0,0E0,0E0,0E0,0E0,0E0,0E0,0E0,0E0,0E0,0E0,0E0,0E0,0E0,0E0,0E0,0E0,0E0,0E0,0E0,0E0,0E0,0E0,0E0,0E0,0E0,0E0,0E0,0E0,0E0,0E0,0E0,0E0,0E0,0E0,0E0,0E0,0E0,0E0,0E0,0E0,0E0,0E0,0E0,0E0,0E0,0E0,0E0,0E0,0E0,0E0,0E0,0E0,0E0,0E0,0E0,0E0,0E0,0E0],"parents":[2147483647,0,0,1,1,2,2,3,3,4,4,5,5,6,6,7,7,8,8,9,9,10,10,11,11,12,12,13,13,14,14,15,15,16,16,17,17,18,18,19,19,20,20,21,21,22,22,23,23,24,24,25,25,26,26,27,27,28,28,29,29,30,30,31,31,32,32,33,33,34,34,35,35,36,36,37,37,38,38,39,39,40,40,42,42,43,43,44,44,45,45,46,46,47,47,48,48,49,49,50,50,51,51,52,52,53,53,54,54,55,55,56,56,57,57,58,58,59,59,60,60,61,61,62,62],"right_children":[2,4,6,8,10,12,14,16,18,20,22,24,26,28,30,32,34,36,38,40,42,44,46,48,50,52,54,56,58,60,62,64,66,68,70,72,74,76,78,80,82,-1,84,86,88,90,92,94,96,98,100,102,104,106,108,110,112,114,116,118,120,122,124,-1,-1,-1,-1,-1,-1,-1,-1,-1,-1,-1,-1,-1,-1,-1,-1,-1,-1,-1,-1,-1,-1,-1,-1,-1,-1,-1,-1,-1,-1,-1,-1,-1,-1,-1,-1,-1,-1,-1,-1,-1,-1,-1,-1,-1,-1,-1,-1,-1,-1,-1,-1,-1,-1,-1,-1,-1,-1,-1,-1,-1,-1],"split_conditions":[2.009E3,1.6534E5,1.93635E5,3.3E0,2E0,2.1E0,2.018E3,3E0,1E0,1E0,3E0,4.5081E4,2.018E3,3.5E0,2.2E0,1E0,7.9509E4,3.4636E4,1E0,2.45164E5,1E0,1E0,1E0,1E0,1E0,1E0,1E0,1E0,1E0,2.75109E5,3E0,1E0,2E0,1E0,1E0,2.002E3,3E0,4.4E0,2E0,2.005E3,2.005E3,-2.3518729E2,2E0,1E0,2E0,2.005E3,4.4E0,3E0,2.021E3,2.02E3,3E0,5.3507E4,4.8231E4,4.2E0,2E0,2.56588E5,2E0,3E0,1E0,1E0,2.023E3,1E0,2.022E3,-7.201807E1,-1.4173257E2,3.2846554E1,-5.00256E1,-3.5659817E1,-1.01826614E2,-1.02725075E2,-1.6854146E2,4.6932983E1,1.5481398E2,6.2576912E1,-1.05695505E1,-8.838797E1,-3.1027067E1,7.909518E1,-2.3456831E1,-1.4088695E2,-8.7400604E1,-2.1839441E2,-1.5234113E2,-1.168609E2,-2.1689061E2,-1.08279495E2,-1.7616423E2,-1.2212114E1,-9.178573E1,-1.3558601E2,-7.372466E1,-1.9023283E2,-1.2794961E2,1.5508228E2,6.7162315E1,3.2375553E1,1.2587197E2,2.1007635E1,9.581469E1,-1.0194581E1,-8.432503E1,1.790201E2,9.120859E1,9.883021E1,2.45355E1,6.08037E1,1.3328522E2,2.3166417E2,1.201937E2,-1.08104065E2,-1.6711864E2,1.705111E1,-9.931996E1,7.215123E1,-2.043997E1,-7.404818E1,-6.5248666E0,-6.678648E1,5.9151034E0,-9.741087E1,-1.8101618E1,-7.442923E0,9.926382E1,-3.6432507E1,2.5998331E1],"split_indices":[2,6,6,3,3,3,2,4,5,5,4,6,2,3,3,4,6,6,4,6,4,4,5,5,5,5,4,4,5,6,4,5,4,5,5,2,4,3,4,2,2,0,4,5,4,2,3,4,2,2,4,6,6,3,4,6,4,4,4,4,2,4,2,0,0,0,0,0,0,0,0,0,0,0,0,0,0,0,0,0,0,0,0,0,0,0,0,0,0,0,0,0,0,0,0,0,0,0,0,0,0,0,0,0,0,0,0,0,0,0,0,0,0,0,0,0,0,0,0,0,0,0,0,0,0],"split_type":[0,0,0,0,0,0,0,0,0,0,0,0,0,0,0,0,0,0,0,0,0,0,0,0,0,0,0,0,0,0,0,0,0,0,0,0,0,0,0,0,0,0,0,0,0,0,0,0,0,0,0,0,0,0,0,0,0,0,0,0,0,0,0,0,0,0,0,0,0,0,0,0,0,0,0,0,0,0,0,0,0,0,0,0,0,0,0,0,0,0,0,0,0,0,0,0,0,0,0,0,0,0,0,0,0,0,0,0,0,0,0,0,0,0,0,0,0,0,0,0,0,0,0,0,0],"sum_hessian":[8E3,2.969E3,5.031E3,1.621E3,1.348E3,3.28E3,1.751E3,9.08E2,7.13E2,3.12E2,1.036E3,8.54E2,2.426E3,1.062E3,6.89E2,6.71E2,2.37E2,2.34E2,4.79E2,1.02E2,2.1E2,7.7E2,2.66E2,2.24E2,6.3E2,1.459E3,9.67E2,6.6E2,4.02E2,1.91E2,4.98E2,2.22E2,4.49E2,1.16E2,1.21E2,5.3E1,1.81E2,1.14E2,3.65E2,6.7E1,3.5E1,5.4E1,1.56E2,2.4E2,5.3E2,7.9E1,1.87E2,6.8E1,1.56E2,1.96E2,4.34E2,5.04E2,9.55E2,2.62E2,7.05E2,1.75E2,4.85E2,1.33E2,2.69E2,1.41E2,5E1,3.67E2,1.31E2,8.7E1,1.35E2,2.33E2,2.16E2,3.5E1,8.1E1,3.3E1,8.8E1,1.1E1,4.2E1,1.33E2,4.8E1,7.3E1,4.1E1,1.19E2,2.46E2,3.4E1,3.3E1,1.4E1,2.1E1,5E1,1.06E2,7E1,1.7E2,2.77E2,2.53E2,4.6E1,3.3E1,1.37E2,5E1,5.4E1,1.4E1,1.26E2,3E1,1.41E2,5.5E1,3.27E2,1.07E2,1.29E2,3.75E2,2.38E2,7.17E2,1.85E2,7.7E1,2.51E2,4.54E2,1.1E2,6.5E1,1.59E2,3.26E2,9.4E1,3.9E1,8.5E1,1.84E2,3.4E1,1.07E2,4.3E1,7E0,1.17E2,2.5E2,8.7E1,4.4E1],"tree_param":{"num_deleted":"0","num_feature":"9","num_nodes":"125","size_leaf_vector":"1"}},{"base_weights":[-4.3170917E-1,-3.7913638E2,6.3335785E2,1.3910713E2,-7.233583E2,1.0994019E3,2.3126192E2,-8.561725E1,6.4652344E2,-9.262329E2,-1.530612E2,8.414099E2,1.5354476E3,-1.0273114E1,7.512928E2,-4.0098172E2,2.6036496E2,7.514446E0,8.369944E2,-1.4498973E3,-7.296096E2,6.5536125E1,-7.4276306E2,2.9653342E2,1.0324167E3,1.7137157E3,9.4860474E2,1.8192653E2,-5.42078E2,1.1766647E3,5.294351E2,-2.9312587E0,-6.1778595E2,4.5088757E2,-3.1162354E2,2.0761981E2,-4.904919E2,1.531661E3,7.185847E2,-1.055815E3,-1.641899E3,-5.5037476E2,-1.3172002E3,-6.515119E2,4.5249146E2,-1.2721133E3,-4.8209213E2,3.480268E1,6.49646E2,1.7007672E3,6.687312E2,1.0462703E3,2.02845E3,7.479878E2,1.5953908E2,-4.485333E2,5.189431E2,-8.8983325E2,-3.1435934E2,1.3715577E3,5.874925E2,6.9442847E2,1.6149273E1,-4.9929165E1,1.9670788E1,-1.9828882E1,-8.275712E1,-2.7928965E1,7.8263245E1,7.126714E0,-4.6797966E1,-4.279537E1,5.1779194E1,-1.338418E1,-7.9242424E1,1.8271178E2,1.1421748E2,8.670923E1,2.4930273E1,-8.657837E1,-1.6276305E2,-1.5087337E2,-2.0277757E2,-1.21537796E2,-2.2041487E1,-8.851517E1,-1.5254565E2,-1.1216448E2,-3.4294617E1,9.794377E0,8.21922E1,-7.632892E1,-1.4467088E2,-2.9445723E1,-1.0026838E2,4.9890316E1,-1.5120384E1,9.266642E1,4.633737E1,1.244891E2,1.8838847E2,9.944356E1,3.2228794E1,7.3051994E1,1.465437E2,2.4424727E2,1.6207756E2,1.2999986E2,5.737685E1,4.0717974E0,-6.670235E1,9.211577E1,7.299743E0,-1.0417312E2,-3.0133142E1,-4.309473E1,3.2561005E1,7.445459E1,1.5947247E2,9.063729E1,2.7070663E1,1.2693403E1,9.675395E1,-2.6296103E1,3.8784775E1],"categories":[],"categories_nodes":[],"categories_segments":[],"categories_sizes":[],"default_left":[0,0,0,0,0,0,0,0,0,0,0,0,0,0,0,0,0,0,0,0,0,0,0,0,0,0,0,0,0,0,0,0,0,0,0,0,0,0,0,0,0,0,0,0,0,0,0,0,0,0,0,0,0,0,0,0,0,0,0,0,0,0,0,0,0,0,0,0,0,0,0,0,0,0,0,0,0,0,0,0,0,0,0,0,0,0,0,0,0,0,0,0,0,0,0,0,0,0,0,0,0,0,0,0,0,0,0,0,0,0,0,0,0,0,0,0,0,0,0,0,0,0,0,0,0],"id":13,"left_children":[1,3,5,7,9,11,13,15,17,19,21,23,25,27,29,31,33,35,37,39,41,43,45,47,49,51,53,55,57,59,61,63,65,67,69,71,73,75,77,79,81,83,85,87,89,91,93,95,97,99,101,103,105,107,-1,109,111,113,115,117,119,121,123,-1,-1,-1,-1,-1,-1,-1,-1,-1,-1,-1,-1,-1,-1,-1,-1,-1,-1,-1,-1,-1,-1,-1,-1,-1,-1,-1,-1,-1,-1,-1,-1,-1,-1,-1,-1,-1,-1,-1,-1,-1,-1,-1,-1,-1,-1,-1,-1,-1,-1,-1,-1,-1,-1,-1,-1,-1,-1,-1,-1,-1,-1],"loss_changes":[1.9206327E9,8.9366E8,5.606172E8,2.2811301E8,3.481116E8,1.5462797E8,2.0198166E8,1.5144066E8,7.472526E7,2.2752358E8,1.0201431E8,9.055149E7,5.214656E7,1.1243038E8,4.750675E7,6.265129E7,7.22831E7,1.4252668E7,3.7806144E7,4.404339E7,1.6946694E8,1.6066989E8,2.8915768E7,2.1049242E7,1.5588544E8,8.043443E7,1.4636928E7,1.7191291E8,2.2843864E7,1.9173872E7,2.8528888E7,2.5565106E7,4.119792E7,1.2060817E8,9.971324E6,2.0329586E7,4.308993E6,5.738288E6,2.8078752E7,2.0432032E7,1.7751808E7,2.718183E8,3.2571008E7,2.9063912E7,4.9168256E7,5.114432E6,1.3868524E7,1.147043E7,4.575888E6,1.660448E7,4.7071504E7,1.5870528E7,4.0938624E7,8.39034E6,0E0,3.0171992E7,9.445854E7,9.966192E6,1.3421386E7,1.7003344E7,4.300396E6,3.9399384E7,8.712813E6,0E0,0E0,0E0,0E0,0E0,0E0,0E0,0E0,0E0,0E0,0E0,0E0,0E0,0E0,0E0,0E0,0E0,0E0,0E0,0E0,0E0,0E0,0E0,0E0,0E0,0E0,0E0,0E0,0E0,0E0,0E0,0E0,0E0,0E0,0E0,0E0,0E0,0E0,0E0,0E0,0E0,0E0,0E0,0E0,0E0,0E0,0E0,0E0,0E0,0E0,0E0,0E0,0E0,0E0,0E0,0E0,0E0,0E0,0E0,0E0,0E0,0E0],"parents":[2147483647,0,0,1,1,2,2,3,3,4,4,5,5,6,6,7,7,8,8,9,9,10,10,11,11,12,12,13,13,14,14,15,15,16,16,17,17,18,18,19,19,20,20,21,21,22,22,23,23,24,24,25,25,26,26,27,27,28,28,29,29,30,30,31,31,32,32,33,33,34,34,35,35,36,36,37,37,38,38,39,39,40,40,41,41,42,42,43,43,44,44,45,45,46,46,47,47,48,48,49,49,50,50,51,51,52,52,53,53,55,55,56,56,57,57,58,58,59,59,60,60,61,61,62,62],"right_children":[2,4,6,8,10,12,14,16,18,20,22,24,26,28,30,32,34,36,38,40,42,44,46,48,50,52,54,56,58,60,62,64,66,68,70,72,74,76,78,80,82,84,86,88,90,92,94,96,98,100,102,104,106,108,-1,110,112,114,116,118,120,122,124,-1,-1,-1,-1,-1,-1,-1,-1,-1,-1,-1,-1,-1,-1,-1,-1,-1,-1,-1,-1,-1,-1,-1,-1,-1,-1,-1,-1,-1,-1,-1,-1,-1,-1,-1,-1,-1,-1,-1,-1,-1,-1,-1,-1,-1,-1,-1,-1,-1,-1,-1,-1,-1,-1,-1,-1,-1,-1,-1,-1,-1,-1],"split_conditions":[2.015E3,1.21063E5,1.37933E5,3.8E0,4E0,3.5E0,3.8E0,2.008E3,2.003E3,2.004E3,3E0,1E0,3E0,3E0,1E0,1E0,3E0,3E0,1.9095E4,1E0,3E0,1E0,2.005E3,2.02E3,2E0,1E0,2.022E3,1E0,2.3E0,2.61403E5,3E0,1E0,3.4636E4,1E0,1E0,1E0,6.2906E4,2E0,3E0,3E0,3E0,1E0,1E0,2.007E3,2.008E3,1E0,2.55638E5,1E0,5.0573E4,1.8E0,3E0,2.02E3,2E0,2.9887E4,1.5953908E2,1E0,2E0,2.022E3,2.023E3,1E0,2E0,1E0,2.021E3,-4.9929165E1,1.9670788E1,-1.9828882E1,-8.275712E1,-2.7928965E1,7.8263245E1,7.126714E0,-4.6797966E1,-4.279537E1,5.1779194E1,-1.338418E1,-7.9242424E1,1.8271178E2,1.1421748E2,8.670923E1,2.4930273E1,-8.657837E1,-1.6276305E2,-1.5087337E2,-2.0277757E2,-1.21537796E2,-2.2041487E1,-8.851517E1,-1.5254565E2,-1.1216448E2,-3.4294617E1,9.794377E0,8.21922E1,-7.632892E1,-1.4467088E2,-2.9445723E1,-1.0026838E2,4.9890316E1,-1.5120384E1,9.266642E1,4.633737E1,1.244891E2,1.8838847E2,9.944356E1,3.2228794E1,7.3051994E1,1.465437E2,2.4424727E2,1.6207756E2,1.2999986E2,5.737685E1,4.0717974E0,-6.670235E1,9.211577E1,7.299743E0,-1.0417312E2,-3.0133142E1,-4.309473E1,3.2561005E1,7.445459E1,1.5947247E2,9.063729E1,2.7070663E1,1.2693403E1,9.675395E1,-2.6296103E1,3.8784775E1],"split_indices":[2,6,6,3,3,3,3,2,2,2,4,4,4,4,5,5,4,4,6,5,4,4,2,2,4,4,2,4,3,6,4,4,6,4,5,4,6,4,4,4,4,4,5,2,2,5,6,5,6,3,4,2,4,6,0,5,4,2,2,4,4,4,2,0,0,0,0,0,0,0,0,0,0,0,0,0,0,0,0,0,0,0,0,0,0,0,0,0,0,0,0,0,0,0,0,0,0,0,0,0,0,0,0,0,0,0,0,0,0,0,0,0,0,0,0,0,0,0,0,0,0,0,0,0,0],"split_type":[0,0,0,0,0,0,0,0,0,0,0,0,0,0,0,0,0,0,0,0,0,0,0,0,0,0,0,0,0,0,0,0,0,0,0,0,0,0,0,0,0,0,0,0,0,0,0,0,0,0,0,0,0,0,0,0,0,0,0,0,0,0,0,0,0,0,0,0,0,0,0,0,0,0,0,0,0,0,0,0,0,0,0,0,0,0,0,0,0,0,0,0,0,0,0,0,0,0,0,0,0,0,0,0,0,0,0,0,0,0,0,0,0,0,0,0,0,0,0,0,0,0,0,0,0],"sum_hessian":[8E3,5.008E3,2.992E3,1.999E3,3.009E3,1.385E3,1.607E3,1.386E3,6.13E2,2.219E3,7.9E2,8.72E2,5.13E2,1.098E3,5.09E2,7.25E2,6.61E2,1.41E2,4.72E2,6.04E2,1.615E3,5.77E2,2.13E2,2.27E2,6.45E2,3.92E2,1.21E2,8.07E2,2.91E2,1.73E2,3.36E2,2.56E2,4.69E2,4.96E2,1.65E2,1.01E2,4E1,6.7E1,4.05E2,2E2,4.04E2,1.239E3,3.76E2,2.02E2,3.75E2,6.9E1,1.44E2,1.31E2,9.6E1,2.26E2,4.19E2,1.27E2,2.65E2,9.4E1,2.7E1,2.81E2,5.26E2,1.14E2,1.77E2,1.29E2,4.4E1,2.54E2,8.2E1,7.3E1,1.83E2,1.57E2,3.12E2,1.55E2,3.41E2,4.8E1,1.17E2,3.3E1,6.8E1,1.9E1,2.1E1,3.6E1,3.1E1,3.07E2,9.8E1,1.52E2,4.8E1,3.04E2,1E2,4.1E2,8.29E2,1.24E2,2.52E2,7.9E1,1.23E2,1.92E2,1.83E2,1.9E1,5E1,1.07E2,3.7E1,3.7E1,9.4E1,3.7E1,5.9E1,6.7E1,1.59E2,2.15E2,2.04E2,7.4E1,5.3E1,1.29E2,1.36E2,2.1E1,7.3E1,8.7E1,1.94E2,2.76E2,2.5E2,9E1,2.4E1,1.5E2,2.7E1,3.5E1,9.4E1,2.1E1,2.3E1,8.3E1,1.71E2,4.7E1,3.5E1],"tree_param":{"num_deleted":"0","num_feature":"9","num_nodes":"125","size_leaf_vector":"1"}},{"base_weights":[-2.9277065E-1,-4.4601917E2,4.4409885E2,-1.1678804E2,-9.2512335E2,7.0516174E2,-1.2233561E2,-7.613013E2,5.7355293E1,-1.2416602E3,-6.448427E2,3.1355643E2,9.558171E2,-2.7077368E2,5.294175E2,-1.1603079E3,-5.321724E2,-4.611607E2,2.2149939E2,-1.1034832E3,-1.6895819E3,-1.055784E3,-4.314057E2,7.431993E2,7.942901E1,1.3583513E3,7.327525E2,-5.430409E2,5.205774E0,-5.5973026E1,7.0019586E2,-9.619209E2,-1.4597081E3,-1.9471443E1,-7.3716815E2,-9.3024194E2,-2.6708298E2,8.737013E2,-1.2381593E2,-1.6132936E3,-8.3716394E2,-1.5262623E3,-1.893524E2,-6.00941E2,-1.2525399E3,-2.6429056E2,-8.862412E2,5.4134283E2,1.3223777E3,5.0376816E2,-1.2747004E2,1.8902451E3,1.1732021E3,1.2809554E3,5.7757806E2,-3.8033337E2,-9.641171E2,1.7400876E2,-5.2574884E2,1.4002348E2,-4.907903E2,1.2851027E3,2.391013E2,-1.3915236E2,-7.673158E1,-1.8196886E2,-1.2112819E2,-6.607287E1,2.0066635E1,-1.2614377E1,-8.574431E1,-3.3776985E1,-1.1263013E2,1.2717622E1,-4.7519634E1,1.419336E2,7.105834E1,1.5982025E1,-4.4843426E1,-1.4399034E2,-1.9512592E2,-4.433215E1,-1.24741516E2,-1.803829E2,-1.3010295E2,-1.1534527E2,-4.2905804E1,-1.05058105E2,-1.561353E2,-8.359399E1,3.177492E0,-7.2405754E1,-1.2477543E2,7.127509E1,-1.9335966E0,6.4203766E1,1.5019185E2,6.862583E1,-4.2948823E0,-2.769704E1,3.7950756E1,1.2825084E2,2.1500652E2,6.4210464E1,1.3317387E2,1.4391264E2,7.182812E1,4.0575394E1,1.0615275E2,-8.170553E1,-2.1477613E1,-8.1571526E1,-1.4385683E2,3.2615173E1,-2.7649387E1,-3.49061E1,-9.018874E1,2.7441E1,-2.1478077E1,-7.804897E1,3.4564455E0,1.1385005E2,1.9530908E2,1.5258619E0,5.3890724E1],"categories":[],"categories_nodes":[],"categories_segments":[],"categories_sizes":[],"default_left":[0,0,0,0,0,0,0,0,0,0,0,0,0,0,0,0,0,0,0,0,0,0,0,0,0,0,0,0,0,0,0,0,0,0,0,0,0,0,0,0,0,0,0,0,0,0,0,0,0,0,0,0,0,0,0,0,0,0,0,0,0,0,0,0,0,0,0,0,0,0,0,0,0,0,0,0,0,0,0,0,0,0,0,0,0,0,0,0,0,0,0,0,0,0,0,0,0,0,0,0,0,0,0,0,0,0,0,0,0,0,0,0,0,0,0,0,0,0,0,0,0,0,0,0,0],"id":14,"left_children":[1,3,5,7,9,11,13,15,17,19,21,23,25,27,29,31,33,35,37,39,41,43,45,47,49,51,53,55,57,59,61,63,65,67,69,71,73,75,77,79,81,83,-1,85,87,89,91,93,95,97,99,101,103,105,107,109,111,113,115,117,119,121,123,-1,-1,-1,-1,-1,-1,-1,-1,-1,-1,-1,-1,-1,-1,-1,-1,-1,-1,-1,-1,-1,-1,-1,-1,-1,-1,-1,-1,-1,-1,-1,-1,-1,-1,-1,-1,-1,-1,-1,-1,-1,-1,-1,-1,-1,-1,-1,-1,-1,-1,-1,-1,-1,-1,-1,-1,-1,-1,-1,-1,-1,-1],"loss_changes":[1.5850129E9,6.300473E8,5.9262144E8,2.6593477E8,1.4354534E8,2.689477E8,1.2252572E8,4.546016E7,1.5891992E8,4.535949E7,7.541376E7,1.077747E8,1.4913523E8,7.747232E7,2.3532628E7,9.465536E6,3.3828336E7,4.062771E7,3.1946346E8,7.821197E7,3.038816E6,2.5647744E7,4.3167416E7,4.347645E7,6.1081996E7,5.6377856E7,9.09625E7,3.5191184E7,4.6069988E7,4.6707465E6,4.877764E7,8.379384E6,4.14528E6,1.3260928E7,1.6794744E7,1.4836488E7,2.6234576E7,4.269181E7,8.551588E7,8.910368E6,6.197629E7,4.154928E6,0E0,8.147128E6,1.1144992E7,7.094047E7,8.067192E6,2.7115344E7,1.0884144E7,2.2777144E7,3.55764E7,2.1243648E7,3.652896E7,2.0058976E7,6.958509E7,2.7010248E7,8.965504E6,2.6821096E7,7.926116E6,1.8708128E6,2.6142912E6,5.610688E6,6.9040405E6,0E0,0E0,0E0,0E0,0E0,0E0,0E0,0E0,0E0,0E0,0E0,0E0,0E0,0E0,0E0,0E0,0E0,0E0,0E0,0E0,0E0,0E0,0E0,0E0,0E0,0E0,0E0,0E0,0E0,0E0,0E0,0E0,0E0,0E0,0E0,0E0,0E0,0E0,0E0,0E0,0E0,0E0,0E0,0E0,0E0,0E0,0E0,0E0,0E0,0E0,0E0,0E0,0E0,0E0,0E0,0E0,0E0,0E0,0E0,0E0,0E0,0E0],"parents":[2147483647,0,0,1,1,2,2,3,3,4,4,5,5,6,6,7,7,8,8,9,9,10,10,11,11,12,12,13,13,14,14,15,15,16,16,17,17,18,18,19,19,20,20,21,21,22,22,23,23,24,24,25,25,26,26,27,27,28,28,29,29,30,30,31,31,32,32,33,33,34,34,35,35,36,36,37,37,38,38,39,39,40,40,41,41,43,43,44,44,45,45,46,46,47,47,48,48,49,49,50,50,51,51,52,52,53,53,54,54,55,55,56,56,57,57,58,58,59,59,60,60,61,61,62,62],"right_children":[2,4,6,8,10,12,14,16,18,20,22,24,26,28,30,32,34,36,38,40,42,44,46,48,50,52,54,56,58,60,62,64,66,68,70,72,74,76,78,80,82,84,-1,86,88,90,92,94,96,98,100,102,104,106,108,110,112,114,116,118,120,122,124,-1,-1,-1,-1,-1,-1,-1,-1,-1,-1,-1,-1,-1,-1,-1,-1,-1,-1,-1,-1,-1,-1,-1,-1,-1,-1,-1,-1,-1,-1,-1,-1,-1,-1,-1,-1,-1,-1,-1,-1,-1,-1,-1,-1,-1,-1,-1,-1,-1,-1,-1,-1,-1,-1,-1,-1,-1,-1,-1,-1,-1,-1],"split_conditions":[2.012E3,1.79292E5,2.03082E5,1.9E0,2.9E0,2.6E0,4.3E0,2.004E3,1E0,3E0,2.004E3,6.6854E4,1E0,2.018E3,1E0,1.22265E5,1E0,2.003E3,2E0,1E0,2.53434E5,1E0,3E0,2.021E3,1E0,5.4454E4,4.5081E4,2.71834E5,2.76281E5,2.71834E5,2E0,1E0,1.4E0,1E0,2.8004E4,4.2569E4,1E0,4.3964E4,3E0,2.56588E5,2E0,2.005E3,-1.893524E2,1E0,2.54487E5,1E0,2.69426E5,3E0,1E0,3E0,2.021E3,1E0,1E0,